<?xml version="1.0"?>
<opencv_storage>
<hcsvm type_id="opencv-ml-svm">
  <svm_type>C_SVC</svm_type>
  <kernel><type>RBF</type>
    <gamma>3.3750000000000002e-002</gamma></kernel>
  <C>2.5000000000000000e+000</C>
  <term_criteria><epsilon>2.2204460492503131e-016</epsilon>
    <iterations>20000</iterations></term_criteria>
  <var_all>352</var_all>
  <var_count>352</var_count>
  <class_count>2</class_count>
  <class_labels type_id="opencv-matrix">
    <rows>1</rows>
    <cols>2</cols>
    <dt>i</dt>
    <data>
      -1 1</data></class_labels>
  <sv_total>494</sv_total>
  <support_vectors>
    <_>
      0. 0. 8.82352963e-002 3.23529422e-001 4.11764711e-001
      4.11764711e-001 3.82352948e-001 3.82352948e-001 4.70588237e-001
      4.70588237e-001 4.11764711e-001 3.82352948e-001 3.23529422e-001
      3.23529422e-001 2.94117659e-001 2.94117659e-001 2.64705896e-001
      1.76470593e-001 5.00000000e-001 8.82352948e-001 1. 9.70588267e-001
      9.41176474e-001 9.41176474e-001 9.11764681e-001 8.23529422e-001
      7.94117630e-001 7.05882370e-001 7.05882370e-001 5.88235319e-001
      4.11764711e-001 3.52941185e-001 4.11764711e-001 4.11764711e-001
      4.41176474e-001 5.00000000e-001 4.70588237e-001 4.70588237e-001
      5.00000000e-001 4.70588237e-001 5.29411793e-001 5.58823526e-001
      5.29411793e-001 5.00000000e-001 5.58823526e-001 7.05882370e-001
      7.05882370e-001 7.05882370e-001 7.35294104e-001 7.05882370e-001
      7.05882370e-001 7.35294104e-001 7.35294104e-001 7.35294104e-001
      7.05882370e-001 6.76470578e-001 6.76470578e-001 6.76470578e-001
      6.76470578e-001 7.35294104e-001 7.64705896e-001 7.05882370e-001
      7.35294104e-001 7.05882370e-001 7.94117630e-001 8.23529422e-001
      8.52941155e-001 8.82352948e-001 8.23529422e-001 8.52941155e-001
      8.52941155e-001 7.94117630e-001 7.94117630e-001 7.64705896e-001
      7.64705896e-001 7.35294104e-001 7.35294104e-001 7.05882370e-001
      7.05882370e-001 7.05882370e-001 7.35294104e-001 7.35294104e-001
      7.35294104e-001 7.64705896e-001 7.64705896e-001 7.64705896e-001
      8.52941155e-001 8.52941155e-001 8.82352948e-001 9.11764681e-001
      9.41176474e-001 9.11764681e-001 8.82352948e-001 8.52941155e-001
      8.82352948e-001 8.23529422e-001 7.94117630e-001 9.11764681e-001
      8.82352948e-001 9.11764681e-001 9.11764681e-001 8.82352948e-001
      7.64705896e-001 4.70588237e-001 8.82352963e-002 2.94117648e-002
      2.94117648e-002 5.88235296e-002 8.82352963e-002 1.17647059e-001
      1.17647059e-001 1.47058830e-001 1.47058830e-001 1.47058830e-001
      1.47058830e-001 2.64705896e-001 3.52941185e-001 3.82352948e-001
      4.11764711e-001 4.41176474e-001 4.70588237e-001 5.29411793e-001
      6.76470578e-001 6.76470578e-001 7.05882370e-001 6.76470578e-001
      6.76470578e-001 6.47058845e-001 6.47058845e-001 6.47058845e-001
      6.47058845e-001 6.47058845e-001 6.47058845e-001 6.47058845e-001
      7.05882370e-001 6.76470578e-001 3.30645144e-001 4.75806445e-001
      4.59677398e-001 4.27419335e-001 4.67741907e-001 4.83870953e-001
      4.27419335e-001 3.38709652e-001 3.70967746e-001 4.03225780e-001
      3.30645144e-001 3.06451619e-001 4.03225780e-001 3.54838699e-001
      3.22580636e-001 4.19354826e-001 5.00000000e-001 7.41935492e-001
      8.22580636e-001 8.46774161e-001 8.54838669e-001 7.98387051e-001
      7.58064508e-001 6.69354796e-001 7.74193525e-001 7.98387051e-001
      7.33870924e-001 7.58064508e-001 7.33870924e-001 7.41935492e-001
      7.41935492e-001 8.46774161e-001 9.67741907e-001 9.59677398e-001 1.
      9.83870924e-001 1.41509436e-002 0. 0. 0. 0. 0. 0. 0. 0. 0. 0. 0.
      0. 0. 0. 0. 0. 0. 0. 0. 7.07547180e-003 0. 0. 0. 7.07547180e-003
      4.71698120e-003 0. 0. 4.71698120e-003 2.12264154e-002
      7.54716992e-002 1.88679248e-002 4.71698120e-002 4.95283008e-002
      3.53773609e-002 5.89622632e-002 4.48113233e-002 2.83018872e-002
      2.83018872e-002 2.12264154e-002 3.30188684e-002 9.43396240e-003
      2.35849060e-002 2.59433966e-002 2.35849060e-003 1.41509436e-002
      4.71698120e-003 0. 1.17924530e-002 2.35849060e-003 4.71698120e-003
      9.43396240e-003 0. 2.35849060e-003 0. 1.17924530e-002
      2.35849060e-003 4.71698120e-003 0. 0. 9.43396240e-003 0. 0.
      2.35849060e-003 0. 2.35849060e-003 2.35849060e-002 0. 0. 0.
      4.71698120e-003 0. 0. 7.07547180e-003 2.35849060e-003
      1.41509436e-002 0. 0. 0. 0. 9.43396240e-003 0. 0. 1.17924530e-002
      0. 0. 0. 7.07547180e-003 0. 0. 2.35849060e-003 0. 0. 0. 0. 0.
      8.01886767e-002 0. 4.71698120e-002 0. 0. 8.01886767e-002 0.
      2.42924526e-001 7.54716992e-002 0. 2.40566045e-001 9.43396240e-002
      6.36792481e-002 5.99056602e-001 3.84433955e-001 1. 9.92924571e-001
      3.01886797e-001 5.40094376e-001 3.53773594e-001 7.09905684e-001
      4.71698120e-003 6.13207556e-002 4.48113233e-002 7.26415098e-001 0.
      2.21698120e-001 0. 2.78301895e-001 4.66981143e-001 1.17924526e-001
      2.83018872e-002 1.67452827e-001 6.36792481e-002 1.74528301e-001 0.
      7.78301880e-002 1.93396226e-001 7.07547180e-003 7.78301880e-002
      8.25471729e-002 0. 1.76886797e-001 9.43396240e-003 4.95283008e-002
      1.43867925e-001 6.60377368e-002 3.30188684e-002 4.95283008e-002
      1.06132075e-001 1.46226421e-001 9.90566015e-002 5.66037744e-002
      1.17924530e-002 1.65094346e-001 0. 1.43867925e-001 8.49056616e-002
      0. 2.83018872e-002 1.32075474e-001 5.42452857e-002 5.42452857e-002
      1.20283023e-001 1.65094342e-002 1.65094342e-002 2.35849060e-002
      4.48113233e-002 1.15566038e-001 7.07547180e-003 2.59433966e-002
      8.25471729e-002 0. 6.36792481e-002 5.42452857e-002 9.43396240e-003
      0. 9.43396240e-003 0. 0. 0. 1.88679248e-002 0. 0.</_>
    <_>
      0. 0. 0. 0. 0. 0. 0. 0. 0. 0. 0. 0. 0. 0. 0. 0. 0. 0. 0. 0. 0. 0.
      0. 0. 0. 0. 0. 0. 0. 0. 0. 0. 0. 0. 0. 0. 5.88235296e-002
      5.88235296e-002 0. 0. 0. 0. 0. 5.88235296e-002 5.88235296e-002 0.
      0. 0. 1.17647059e-001 5.88235296e-002 1.76470593e-001
      1.76470593e-001 2.35294119e-001 4.11764711e-001 3.52941185e-001
      4.70588237e-001 4.11764711e-001 5.29411793e-001 5.88235319e-001
      6.47058845e-001 4.11764711e-001 5.29411793e-001 6.47058845e-001
      9.41176474e-001 1. 8.23529422e-001 8.23529422e-001 5.88235319e-001
      4.11764711e-001 4.11764711e-001 4.11764711e-001 4.70588237e-001
      4.70588237e-001 3.52941185e-001 3.52941185e-001 1.76470593e-001
      2.94117659e-001 5.29411793e-001 7.64705896e-001 8.23529422e-001
      6.47058845e-001 5.88235319e-001 6.47058845e-001 4.11764711e-001
      2.94117659e-001 0. 2.35294119e-001 5.29411793e-001 7.05882370e-001
      8.23529422e-001 7.05882370e-001 4.70588237e-001 4.11764711e-001
      3.52941185e-001 2.94117659e-001 1.76470593e-001 1.17647059e-001
      5.88235296e-002 1.17647059e-001 5.29411793e-001 5.29411793e-001
      5.88235319e-001 4.70588237e-001 3.52941185e-001 3.52941185e-001
      2.94117659e-001 4.70588237e-001 3.52941185e-001 3.52941185e-001
      2.94117659e-001 2.94117659e-001 3.52941185e-001 4.11764711e-001
      3.52941185e-001 3.52941185e-001 3.52941185e-001 2.94117659e-001
      1.76470593e-001 2.35294119e-001 4.11764711e-001 4.70588237e-001
      7.64705896e-001 7.64705896e-001 5.88235319e-001 2.94117659e-001
      1.17647059e-001 0. 0. 0. 0. 0. 0. 0. 0. 2.94117659e-001
      3.52941185e-001 4.76190485e-002 4.76190485e-002 4.76190485e-002
      4.76190485e-002 4.76190485e-002 2.38095243e-002 1.66666672e-001
      2.14285716e-001 2.14285716e-001 4.04761910e-001 4.76190478e-001
      4.04761910e-001 5.23809552e-001 4.52380955e-001 5.23809552e-001
      4.04761910e-001 3.80952388e-001 2.85714298e-001 1.90476194e-001
      2.85714298e-001 3.80952388e-001 5.95238090e-001 6.66666687e-001
      7.61904776e-001 6.90476179e-001 5.71428597e-001 5.47619045e-001
      2.85714298e-001 2.14285716e-001 6.19047642e-001 8.80952418e-001 1.
      7.38095224e-001 3.33333343e-001 3.80952388e-001 1.90476194e-001
      6.96378807e-003 0. 0. 0. 0. 0. 0. 0. 0. 0. 0. 0. 0. 0. 0. 0. 0. 0.
      0. 0. 2.78551527e-003 0. 0. 0. 2.78551527e-003 5.57103055e-003 0.
      0. 0. 0. 0. 0. 0. 0. 2.78551527e-003 2.78551527e-003
      4.17827303e-003 0. 1.39275764e-003 1.39275764e-003 2.78551527e-003
      0. 9.74930357e-003 1.25348186e-002 0. 4.17827303e-003
      6.96378807e-003 1.39275764e-003 2.50696372e-002 2.78551527e-003
      1.94986071e-002 2.22841222e-002 6.96378807e-003 1.11420611e-002
      1.67130921e-002 1.39275761e-002 2.08913647e-002 9.74930357e-003
      4.17827303e-003 1.39275764e-003 1.94986071e-002 1.39275764e-003
      1.25348186e-002 1.53203337e-002 2.78551527e-003 2.22841222e-002
      2.92479098e-002 9.74930357e-003 2.08913647e-002 3.06406673e-002
      1.11420611e-002 2.78551523e-002 8.35654605e-003 2.08913647e-002
      7.93871880e-002 1.81058496e-002 5.29247895e-002 2.08913647e-002
      1.39275764e-003 9.61002782e-002 1.74094707e-001 9.74930357e-003 0.
      1.94986071e-002 5.29247895e-002 3.06406673e-002 1.39275764e-003
      1.81058496e-001 2.22841222e-002 0. 1.69916436e-001 0.
      1.53203337e-002 9.61002782e-002 0. 1.51810586e-001 2.63231188e-001
      0. 2.49303624e-001 4.17827303e-003 0. 3.87186617e-001 0. 1.
      2.01949865e-001 8.35654605e-003 4.94428962e-001 1.39275764e-003
      2.08913647e-002 7.07520902e-001 2.78551523e-002 8.07799459e-001
      5.01392744e-002 1.81058496e-001 1.53203338e-001 2.04735368e-001
      8.91364887e-002 0. 0. 0. 2.07520887e-001 0. 0. 0. 1.39275761e-002
      4.87465188e-002 2.22841222e-002 0. 5.57103055e-003 0.
      1.39275764e-003 0. 4.17827303e-003 2.78551527e-003 0.
      1.39275764e-003 0. 0. 0. 0. 2.78551527e-003 0. 0. 0. 0. 0. 0. 0.
      0. 0. 2.78551527e-003 0. 0. 0. 0. 0. 0. 0. 0. 0. 0. 0. 0. 0. 0.
      4.17827303e-003 0. 0. 0. 0. 0. 0. 0. 0. 0. 0. 0. 0. 0. 0.</_>
    <_>
      0. 0. 1.42857149e-001 1.42857149e-001 1.90476194e-001
      1.90476194e-001 2.85714298e-001 3.33333343e-001 3.33333343e-001
      4.28571433e-001 4.76190478e-001 4.76190478e-001 5.71428597e-001
      6.19047642e-001 6.66666687e-001 7.14285731e-001 8.09523821e-001
      8.57142866e-001 9.04761910e-001 1. 9.52380955e-001 1. 1.
      9.52380955e-001 9.52380955e-001 1. 9.52380955e-001 1. 1.
      9.52380955e-001 1. 9.52380955e-001 9.52380955e-001 9.52380955e-001
      9.52380955e-001 9.04761910e-001 9.52380955e-001 9.04761910e-001
      9.04761910e-001 9.04761910e-001 8.57142866e-001 8.09523821e-001
      8.57142866e-001 8.09523821e-001 8.09523821e-001 7.61904776e-001
      8.09523821e-001 8.57142866e-001 8.57142866e-001 8.57142866e-001
      8.57142866e-001 7.61904776e-001 7.61904776e-001 8.09523821e-001
      7.61904776e-001 7.61904776e-001 8.09523821e-001 7.61904776e-001
      8.09523821e-001 7.61904776e-001 7.14285731e-001 7.61904776e-001
      6.66666687e-001 6.66666687e-001 7.14285731e-001 6.66666687e-001
      6.66666687e-001 6.66666687e-001 6.66666687e-001 6.19047642e-001
      6.19047642e-001 6.66666687e-001 6.66666687e-001 6.19047642e-001
      6.19047642e-001 5.71428597e-001 5.71428597e-001 5.71428597e-001
      5.23809552e-001 5.23809552e-001 5.23809552e-001 5.23809552e-001
      4.76190478e-001 5.23809552e-001 5.23809552e-001 5.23809552e-001
      4.76190478e-001 5.23809552e-001 4.76190478e-001 4.76190478e-001
      5.23809552e-001 4.76190478e-001 4.76190478e-001 4.76190478e-001
      4.76190478e-001 4.76190478e-001 4.76190478e-001 4.76190478e-001
      4.76190478e-001 4.76190478e-001 4.28571433e-001 4.76190478e-001
      4.28571433e-001 4.28571433e-001 4.76190478e-001 4.28571433e-001
      4.28571433e-001 4.28571433e-001 4.28571433e-001 4.28571433e-001
      3.80952388e-001 4.28571433e-001 4.28571433e-001 4.28571433e-001
      4.28571433e-001 4.28571433e-001 3.80952388e-001 4.28571433e-001
      4.28571433e-001 3.80952388e-001 3.80952388e-001 4.28571433e-001
      3.80952388e-001 3.80952388e-001 4.28571433e-001 3.80952388e-001
      3.80952388e-001 3.33333343e-001 3.80952388e-001 3.80952388e-001
      3.33333343e-001 3.80952388e-001 3.33333343e-001 3.33333343e-001
      3.33333343e-001 3.80952388e-001 1.00000001e-001 1.37500003e-001
      2.25000009e-001 3.12500000e-001 3.87500018e-001 5.00000000e-001
      5.87500036e-001 6.62500024e-001 7.50000000e-001 7.87500024e-001
      7.87500024e-001 7.62499988e-001 7.37500012e-001 7.50000000e-001
      7.50000000e-001 7.75000036e-001 7.75000036e-001 8.00000012e-001
      8.24999988e-001 8.75000000e-001 1. 9.75000024e-001 9.12500024e-001
      8.62500012e-001 8.00000012e-001 7.62499988e-001 6.87500000e-001
      6.37499988e-001 5.74999988e-001 5.12499988e-001 4.37500000e-001
      3.75000000e-001 3.00000012e-001 2.25000009e-001 5.00000007e-002 0.
      3.97489518e-002 0. 0. 0. 0. 0. 0. 0. 0. 0. 0. 0. 0.
      2.09205016e-003 0. 0. 0. 0. 0. 0. 0. 0. 0. 0. 6.27615023e-003
      2.09205016e-003 0. 0. 0. 0. 2.09205016e-003 0. 0. 0. 0. 0.
      4.18410031e-003 0. 0. 0. 0. 0. 2.09205016e-003 0. 0. 0. 0. 0.
      2.09205016e-003 0. 2.30125524e-002 0. 4.18410031e-003 0.
      4.18410031e-003 1.25523005e-002 2.51046009e-002 1.04602510e-002
      6.27615023e-003 0. 5.23012541e-002 0. 1.88284516e-002
      1.88284516e-002 2.09205016e-003 1.25523005e-002 8.36820081e-002
      4.39330526e-002 1.46443509e-002 3.76569033e-002 5.23012541e-002
      1.46443509e-002 5.23012541e-002 5.02092019e-002 8.15899596e-002
      6.48535565e-002 4.39330526e-002 6.27615023e-003 0. 9.20502096e-002
      2.40585774e-001 1.04602510e-002 0. 9.41422582e-002 2.92887017e-002
      2.30125524e-002 0. 1.44351467e-001 0. 0. 1.73640162e-001
      2.09205016e-003 8.36820062e-003 6.90376535e-002 4.18410031e-003
      8.36820081e-002 2.25941420e-001 2.09205016e-003 1.52719662e-001
      6.27615023e-003 6.27615023e-003 2.42677823e-001 1.04602510e-002
      4.01673615e-001 1.19246855e-001 1.06694557e-001 2.67782420e-001
      1.21338911e-001 1.08786605e-001 3.72384936e-001 3.84937227e-001
      5.06276131e-001 4.60251033e-001 2.88702935e-001 1. 7.57322133e-001
      6.29707098e-001 1.56903759e-001 1.27615064e-001 1.33891210e-001
      8.38912129e-001 3.13807540e-002 3.97489518e-002 6.27615079e-002
      1.02510460e-001 2.92887032e-001 1.77824259e-001 4.18410031e-003
      3.34728025e-002 6.27615023e-003 1.67364012e-002 0. 6.90376535e-002
      5.23012541e-002 0. 6.27615023e-003 0. 0. 1.25523005e-002 0.
      6.90376535e-002 8.36820062e-003 4.18410031e-003 0. 0.
      1.04602510e-002 2.09205016e-003 0. 0. 0. 4.18410031e-003 0. 0. 0.
      0. 0. 2.09205020e-002 0. 0. 0. 0. 0. 0. 0. 0. 1.46443509e-002 0.
      0. 0. 0. 0. 0. 0. 0. 0. 0. 0. 0. 0. 0.</_>
    <_>
      0. 0. 0. 1.17647059e-001 1.17647059e-001 1.17647059e-001
      1.76470593e-001 1.76470593e-001 1.76470593e-001 1.76470593e-001
      1.76470593e-001 5.88235296e-002 1.17647059e-001 1.76470593e-001
      2.35294119e-001 2.94117659e-001 2.94117659e-001 3.52941185e-001
      4.70588237e-001 4.11764711e-001 3.52941185e-001 5.29411793e-001
      7.05882370e-001 8.82352948e-001 1. 1. 9.41176474e-001
      9.41176474e-001 6.47058845e-001 5.88235319e-001 5.88235319e-001
      5.88235319e-001 5.29411793e-001 4.70588237e-001 4.11764711e-001
      3.52941185e-001 2.94117659e-001 1.76470593e-001 5.88235296e-002 0.
      0. 0. 0. 0. 0. 0. 0. 0. 0. 0. 0. 0. 0. 0. 0. 0. 0. 0. 0. 0. 0. 0.
      0. 0. 0. 0. 0. 0. 0. 0. 0. 0. 0. 0. 0. 0. 0. 0. 0. 0. 0. 0. 0. 0.
      0. 0. 0. 0. 0. 0. 0. 0. 1.76470593e-001 3.52941185e-001
      4.11764711e-001 4.70588237e-001 5.29411793e-001 5.88235319e-001
      5.88235319e-001 5.88235319e-001 5.29411793e-001 5.29411793e-001
      5.29411793e-001 5.29411793e-001 4.70588237e-001 4.11764711e-001
      2.94117659e-001 1.76470593e-001 0. 0. 0. 0. 0. 0. 0. 0. 0. 0. 0.
      0. 0. 0. 0. 0. 0. 0. 0. 0. 0. 0. 0. 0. 0. 0. 0. 0. 0.
      1.73913047e-001 3.47826093e-001 2.60869563e-001 1.73913047e-001 0.
      0. 0. 0. 0. 3.04347843e-001 4.34782624e-001 6.08695686e-001
      7.82608688e-001 1. 1. 1. 8.69565248e-001 6.95652187e-001
      8.69565248e-001 8.26086998e-001 9.13043499e-001 9.13043499e-001
      8.26086998e-001 7.39130437e-001 6.95652187e-001 5.65217376e-001
      4.78260875e-001 3.91304344e-001 8.69565234e-002 0. 1.30434781e-001
      2.60869563e-001 3.47826093e-001 3.04347843e-001 1.73913047e-001 1.
      0. 0. 0. 0. 0. 2.04123721e-001 0. 0. 0. 0. 1.85567010e-002 0.
      6.59793839e-002 0. 0. 0. 0. 0. 0. 7.62886643e-001 0. 0. 0.
      2.57731974e-001 3.91752608e-002 0. 0. 0. 0. 5.69072187e-001 0. 0.
      0. 0. 8.24742299e-003 3.01030934e-001 0. 0. 0. 0. 0.
      1.31958768e-001 4.12371149e-003 0. 2.06185575e-003 0. 0. 0. 0.
      5.38144350e-001 0. 0. 0. 0. 6.59793839e-002 0. 0. 0. 0.
      4.74226810e-002 0. 0. 0. 0. 0. 2.84536093e-001 0. 1.23711340e-002
      0. 9.89690721e-002 0. 0. 2.06185579e-002 2.68041249e-002
      6.37113452e-001 0. 0. 0. 6.18556701e-003 1.87628880e-001 0. 0.
      1.56701043e-001 2.06185575e-003 0. 0. 3.29896919e-002 0. 0.
      1.13402069e-001 0. 0. 0. 0. 0. 1.36082485e-001 0. 0. 0. 0.
      4.32989709e-002 0. 1.56701043e-001 0. 1.03092790e-002
      2.06185579e-002 1.03092790e-002 0. 5.77319600e-002 3.52577329e-001
      7.42268041e-002 2.26804130e-002 2.68041249e-002 2.41237119e-001
      1.89690724e-001 2.88659800e-002 0. 0. 0. 4.65979397e-001 0.
      2.06185575e-003 0. 2.06185579e-002 1.05154641e-001 1.50515467e-001
      0. 6.18556701e-003 2.06185575e-003 2.47422680e-002 0.
      1.17525779e-001 9.69072208e-002 0. 1.03092790e-002 2.06185575e-003
      0. 0. 0. 6.12371147e-001 1.44329900e-002 6.18556701e-003 0.
      6.18556701e-003 4.74226810e-002 1.03092790e-002 2.06185575e-003 0.
      0. 5.77319600e-002 0. 8.24742299e-003 6.18556701e-003 0.
      6.18556701e-003 7.21649528e-002 2.06185575e-003 4.12371149e-003
      2.06185575e-003 8.24742299e-003 0. 0. 1.03092790e-002
      6.18556701e-003 9.83505189e-001 0. 0. 0. 1.23711340e-002
      6.59793839e-002 0. 0. 1.71134025e-001 0. 0. 0. 8.24742299e-003 0.
      0.</_>
    <_>
      0. 0. 0. 0. 0. 0. 1.00000001e-001 3.00000012e-001 2.50000000e-001
      5.00000007e-002 0. 0. 0. 0. 0. 0. 0. 0. 0. 0. 0. 0. 0. 0. 0. 0. 0.
      0. 0. 0. 0. 0. 0. 0. 0. 1.00000001e-001 3.00000012e-001
      4.50000018e-001 5.00000000e-001 5.00000000e-001 3.49999994e-001
      4.00000006e-001 4.50000018e-001 5.50000012e-001 5.50000012e-001
      7.50000000e-001 8.50000024e-001 8.50000024e-001 8.50000024e-001
      9.00000036e-001 8.50000024e-001 7.50000000e-001 6.99999988e-001
      6.50000036e-001 6.00000024e-001 6.99999988e-001 7.50000000e-001
      9.00000036e-001 9.00000036e-001 8.00000012e-001 5.50000012e-001
      6.50000036e-001 6.99999988e-001 5.50000012e-001 5.00000000e-001
      5.50000012e-001 6.99999988e-001 7.50000000e-001 8.00000012e-001
      7.50000000e-001 7.50000000e-001 6.50000036e-001 6.50000036e-001
      6.99999988e-001 6.99999988e-001 6.99999988e-001 6.50000036e-001
      6.99999988e-001 6.50000036e-001 6.00000024e-001 6.00000024e-001
      3.49999994e-001 3.00000012e-001 3.00000012e-001 3.49999994e-001
      2.50000000e-001 2.50000000e-001 2.50000000e-001 3.49999994e-001
      4.00000006e-001 5.00000000e-001 5.00000000e-001 5.00000000e-001
      6.00000024e-001 5.50000012e-001 4.50000018e-001 4.50000018e-001
      5.00000000e-001 6.00000024e-001 5.50000012e-001 5.50000012e-001
      6.00000024e-001 6.00000024e-001 6.00000024e-001 6.00000024e-001
      6.00000024e-001 7.50000000e-001 6.99999988e-001 7.50000000e-001
      6.99999988e-001 6.50000036e-001 6.50000036e-001 6.99999988e-001
      6.99999988e-001 7.50000000e-001 6.50000036e-001 4.50000018e-001
      5.00000000e-001 5.00000000e-001 5.00000000e-001 5.50000012e-001
      5.50000012e-001 6.00000024e-001 6.00000024e-001 6.50000036e-001
      6.50000036e-001 6.99999988e-001 8.50000024e-001 9.49999988e-001 1.
      9.49999988e-001 9.00000036e-001 7.50000000e-001 6.50000036e-001
      6.50000036e-001 6.50000036e-001 9.20634985e-001 1. 9.52381015e-001
      8.09523880e-001 6.82539701e-001 5.39682567e-001 4.76190507e-001
      4.12698448e-001 3.49206358e-001 3.96825433e-001 4.44444478e-001
      4.76190507e-001 4.92063522e-001 5.87301612e-001 5.07936537e-001
      4.28571463e-001 4.76190507e-001 4.76190507e-001 5.55555582e-001
      7.30158746e-001 5.87301612e-001 5.55555582e-001 6.98412716e-001
      7.61904836e-001 6.82539701e-001 6.03174627e-001 7.93650866e-001
      6.82539701e-001 5.55555582e-001 5.71428597e-001 5.87301612e-001
      5.39682567e-001 3.65079373e-001 7.93650821e-002 7.93650821e-002
      3.17460336e-002 3.12865496e-001 0. 5.84795326e-003 5.84795326e-003
      0. 1.16959065e-002 8.77192989e-003 0. 1.16959065e-002 0. 0.
      5.84795326e-003 0. 2.92397663e-003 5.84795326e-003 0. 0. 0. 0.
      1.75438598e-002 2.92397663e-003 5.84795326e-003 0. 0.
      8.77192989e-003 2.92397663e-003 0. 0. 0. 0. 1.75438598e-002 0. 0.
      0. 0. 0. 3.50877196e-002 0. 0. 0. 0. 0. 0. 0. 0. 0. 0. 0. 0. 0.
      2.04678364e-002 0. 0. 0. 0. 0. 0. 0. 0. 0. 5.84795326e-003 0. 0.
      0. 0. 0. 0. 0. 0. 0. 3.80116962e-002 0. 0. 5.84795326e-003
      5.84795326e-003 2.51461983e-001 0. 0. 0. 1.75438598e-002
      8.18713456e-002 0. 0. 5.26315793e-002 8.77192989e-002
      7.01754391e-002 5.84795326e-003 1.05263159e-001 2.92397663e-002
      2.33918130e-002 3.80116969e-001 1.46198831e-002 8.47953260e-002
      1.34502918e-001 8.77192989e-003 3.88888896e-001 3.30409348e-001 0.
      2.83625722e-001 4.38596494e-002 2.33918130e-002 4.85380113e-001
      8.47953260e-002 5.26315808e-001 3.94736856e-001 3.59649122e-001
      3.42105269e-001 2.66081870e-001 2.45614037e-001 6.28654957e-001
      7.63157904e-001 9.06432748e-001 7.74853826e-001 4.44444448e-001
      5.20467818e-001 4.06432748e-001 7.30994165e-001 1.75438598e-002
      6.43274859e-002 8.77192989e-002 1. 0. 2.04678357e-001
      6.14035092e-002 1.40350878e-001 4.35672522e-001 3.30409348e-001
      8.77192989e-003 1.05263159e-001 2.92397663e-002 2.33918130e-002 0.
      3.21637429e-002 8.77192989e-002 0. 1.46198831e-002 2.92397663e-002
      0. 2.04678364e-002 0. 1.81286544e-001 4.67836261e-002
      1.46198831e-002 2.92397663e-003 1.16959065e-002 1.46198831e-002
      1.75438598e-002 1.75438598e-002 0. 0. 2.63157897e-002 0. 0.
      2.63157897e-002 0. 5.84795326e-003 8.47953260e-002 0.
      2.33918130e-002 2.92397663e-003 4.38596494e-002 0. 0.
      2.04678364e-002 1.75438598e-002 9.64912325e-002 2.92397663e-003 0.
      0. 8.77192989e-003 4.97076027e-002 0. 0. 2.63157897e-002
      2.04678364e-002 1.16959065e-002 0. 8.77192989e-003 2.92397663e-003
      0.</_>
    <_>
      0. 0. 9.09090936e-002 1.21212125e-001 9.09090936e-002
      9.09090936e-002 1.51515156e-001 1.81818187e-001 2.12121218e-001
      2.42424250e-001 2.42424250e-001 2.72727281e-001 2.72727281e-001
      2.72727281e-001 2.12121218e-001 0. 1.21212125e-001 1.81818187e-001
      1.81818187e-001 2.12121218e-001 2.42424250e-001 2.72727281e-001
      4.54545468e-001 5.75757623e-001 6.66666687e-001 6.36363626e-001
      6.36363626e-001 5.75757623e-001 4.24242437e-001 5.15151501e-001
      7.57575750e-001 8.78787875e-001 9.69696999e-001 1. 9.69696999e-001
      9.69696999e-001 9.69696999e-001 1. 9.09090936e-001 7.87878811e-001
      6.36363626e-001 4.24242437e-001 3.63636374e-001 3.63636374e-001
      2.72727281e-001 3.33333343e-001 4.24242437e-001 4.54545468e-001
      4.54545468e-001 3.93939406e-001 4.24242437e-001 4.54545468e-001
      4.24242437e-001 3.03030312e-001 2.12121218e-001 2.42424250e-001
      2.72727281e-001 3.03030312e-001 3.03030312e-001 3.33333343e-001
      2.72727281e-001 6.06060624e-002 3.03030312e-002 9.09090936e-002
      1.51515156e-001 1.51515156e-001 1.21212125e-001 1.81818187e-001
      2.72727281e-001 3.63636374e-001 5.15151501e-001 5.45454562e-001
      6.36363626e-001 6.66666687e-001 7.27272749e-001 6.36363626e-001
      6.06060624e-001 6.66666687e-001 6.96969748e-001 7.57575750e-001
      7.27272749e-001 7.27272749e-001 7.27272749e-001 7.57575750e-001
      8.18181872e-001 8.18181872e-001 7.57575750e-001 7.57575750e-001
      7.57575750e-001 7.57575750e-001 7.57575750e-001 7.57575750e-001
      7.27272749e-001 7.27272749e-001 7.27272749e-001 6.96969748e-001
      6.96969748e-001 6.06060624e-001 5.75757623e-001 5.45454562e-001
      5.75757623e-001 5.45454562e-001 5.45454562e-001 5.45454562e-001
      4.84848499e-001 5.15151501e-001 5.75757623e-001 6.96969748e-001
      7.57575750e-001 8.48484874e-001 8.48484874e-001 8.48484874e-001
      8.48484874e-001 8.48484874e-001 8.48484874e-001 8.78787875e-001
      8.78787875e-001 8.48484874e-001 8.48484874e-001 8.48484874e-001
      8.78787875e-001 8.78787875e-001 8.78787875e-001 8.48484874e-001
      7.57575750e-001 6.96969748e-001 7.27272749e-001 7.87878811e-001
      7.87878811e-001 7.57575750e-001 7.57575750e-001 6.66666687e-001
      6.06060624e-001 3.63636374e-001 1.51515156e-001 1.21212125e-001
      5.60747646e-002 1.12149529e-001 1.30841121e-001 1.30841121e-001
      1.30841121e-001 2.61682242e-001 3.17757010e-001 4.01869148e-001
      4.48598117e-001 5.42056084e-001 6.07476592e-001 6.54205561e-001
      7.19626129e-001 7.66355097e-001 8.22429895e-001 8.03738296e-001
      8.87850463e-001 9.43925202e-001 9.25233603e-001 9.43925202e-001
      9.90654171e-001 9.99999940e-001 8.78504634e-001 8.41121495e-001
      7.85046697e-001 7.85046697e-001 7.75700927e-001 7.57009327e-001
      7.85046697e-001 7.10280359e-001 7.57009327e-001 7.47663498e-001
      7.75700927e-001 6.91588759e-001 4.01869148e-001 1.12149529e-001
      4.75982547e-001 0. 0. 2.40174681e-002 0. 2.83842795e-002
      7.64192119e-002 0. 3.05676870e-002 0. 0. 6.98689967e-002
      2.18340615e-003 1.79039299e-001 8.95196497e-002 1.11353710e-001
      2.59825319e-001 2.46724889e-001 4.25764203e-001 4.82532769e-001
      8.49344969e-001 1. 8.29694331e-001 4.67248917e-001 7.86026239e-001
      3.97379905e-001 6.65938854e-001 3.27510908e-002 1.35371178e-001
      1.00436680e-001 7.96943247e-001 4.36681230e-003 6.33187816e-002
      6.76855892e-002 1.24454148e-001 2.42358088e-001 2.27074236e-001 0.
      4.36681230e-003 0. 3.49344984e-002 0. 1.11353710e-001
      6.11353740e-002 0. 2.18340615e-003 0. 0. 2.18340615e-003 0.
      1.31004363e-001 4.36681211e-002 0. 0. 0. 4.36681211e-002 0. 0. 0.
      0. 4.36681230e-003 0. 0. 0. 0. 0. 3.49344984e-002 0. 0. 0.
      1.96506549e-002 0. 0. 0. 0. 1.02620088e-001 0. 0. 0. 0.
      2.62008738e-002 0. 0. 8.51528421e-002 0. 0. 0. 1.52838435e-002 0.
      0. 6.55021844e-003 0. 0. 0. 0. 0. 5.67685589e-002 0. 0. 0. 0.
      6.55021844e-003 0. 0. 0. 0. 0. 0. 0. 0. 7.86026195e-002 0. 0. 0.
      1.31004369e-002 0. 0. 0. 0. 0. 1.65938869e-001 0. 0. 0. 0.
      2.18340615e-003 3.05676870e-002 0. 0. 0. 0. 0. 1.52838435e-002
      4.36681230e-003 0. 0. 0. 0. 0. 0. 6.55021844e-003 0. 0. 0. 0.
      2.18340615e-003 0. 0. 0. 0. 0. 0. 0. 0. 0. 0. 8.73362459e-003 0.
      0. 0. 4.36681230e-003 0. 0. 2.18340615e-003 0. 2.24890828e-001 0.
      0. 0. 0. 1.31004369e-002 0. 0. 1.74672492e-002 0. 0. 0.
      1.52838435e-002 0. 0.</_>
    <_>
      0. 1.19999997e-001 9.19999957e-001 9.19999957e-001 9.19999957e-001
      9.19999957e-001 9.19999957e-001 9.19999957e-001 9.19999957e-001
      9.59999979e-001 9.19999957e-001 9.19999957e-001 9.19999957e-001
      9.19999957e-001 8.79999995e-001 5.19999981e-001 5.60000002e-001
      5.60000002e-001 5.19999981e-001 5.19999981e-001 5.60000002e-001
      5.60000002e-001 5.19999981e-001 5.19999981e-001 5.19999981e-001
      5.60000002e-001 5.60000002e-001 5.60000002e-001 5.60000002e-001
      5.60000002e-001 6.39999986e-001 7.19999969e-001 5.19999981e-001
      5.60000002e-001 5.19999981e-001 5.19999981e-001 6.39999986e-001
      7.19999969e-001 7.99999952e-001 8.79999995e-001 9.59999979e-001
      9.59999979e-001 9.19999957e-001 8.79999995e-001 8.79999995e-001
      9.19999957e-001 9.19999957e-001 9.19999957e-001 8.39999974e-001
      6.80000007e-001 5.60000002e-001 4.79999989e-001 3.59999985e-001
      3.99999976e-001 4.79999989e-001 6.39999986e-001 7.19999969e-001
      9.19999957e-001 9.19999957e-001 9.19999957e-001 9.19999957e-001
      9.59999979e-001 9.19999957e-001 9.59999979e-001 9.19999957e-001
      9.59999979e-001 8.79999995e-001 7.99999952e-001 6.80000007e-001
      5.99999964e-001 5.19999981e-001 4.39999998e-001 3.19999993e-001
      2.80000001e-001 1.99999988e-001 7.99999982e-002 1.99999988e-001
      3.99999976e-001 5.19999981e-001 6.80000007e-001 8.79999995e-001
      9.19999957e-001 9.59999979e-001 1. 9.59999979e-001 9.59999979e-001
      9.19999957e-001 9.59999979e-001 9.59999979e-001 9.59999979e-001
      8.39999974e-001 6.80000007e-001 7.19999969e-001 7.99999952e-001
      9.59999979e-001 9.59999979e-001 9.59999979e-001 8.79999995e-001
      8.39999974e-001 8.79999995e-001 8.39999974e-001 8.79999995e-001
      7.59999990e-001 6.39999986e-001 5.60000002e-001 5.60000002e-001
      6.39999986e-001 7.59999990e-001 9.19999957e-001 9.59999979e-001
      9.59999979e-001 9.59999979e-001 9.59999979e-001 9.59999979e-001
      9.59999979e-001 9.19999957e-001 7.59999990e-001 6.80000007e-001
      6.80000007e-001 8.39999974e-001 9.59999979e-001 9.19999957e-001
      9.19999957e-001 9.59999979e-001 9.59999979e-001 9.19999957e-001
      8.79999995e-001 8.39999974e-001 8.39999974e-001 8.39999974e-001
      6.80000007e-001 5.60000002e-001 3.99999976e-001 2.80000001e-001
      1.19999997e-001 0. 3.16326529e-001 3.97959173e-001 3.97959173e-001
      4.08163249e-001 4.08163249e-001 4.08163249e-001 4.79591817e-001
      4.08163249e-001 4.28571433e-001 4.28571433e-001 4.28571433e-001
      4.59183663e-001 7.04081595e-001 8.26530576e-001 9.69387710e-001
      9.89795923e-001 1. 9.69387710e-001 9.89795923e-001 1. 1.
      8.26530576e-001 9.08163249e-001 9.08163249e-001 9.18367326e-001
      9.08163249e-001 8.97959173e-001 9.08163249e-001 8.87755096e-001
      7.75510192e-001 7.04081595e-001 7.24489808e-001 7.04081595e-001
      7.04081595e-001 7.04081595e-001 5.00000000e-001 3.46031755e-001
      5.42857170e-001 6.03174627e-001 3.49206358e-001 7.93650806e-001
      6.12698436e-001 5.30158758e-001 3.20634931e-001 7.49206364e-001
      5.58730185e-001 5.46031773e-001 9.36507940e-001 6.38095260e-001
      8.38095248e-001 6.76190495e-001 1. 9.93650794e-001 4.31746036e-001
      3.30158740e-001 2.63492078e-001 1.84126988e-001 4.76190478e-001
      1.77777782e-001 1.39682546e-001 0. 7.61904791e-002 9.20634940e-002
      0. 1.58730168e-002 0. 4.76190485e-002 0. 3.17460322e-003 0. 0. 0.
      0. 0. 0. 0. 0. 0. 0. 0. 0. 0. 0. 0. 0. 0. 0. 0. 0. 0. 0. 0. 0. 0.
      0. 0. 0. 0. 0. 0. 0. 0. 0. 0. 0. 0. 0. 0. 0. 0. 0. 0. 0. 0. 0. 0.
      0. 0. 0. 0. 0. 0. 0. 0. 0. 0. 0. 0. 0. 0. 0. 0. 0. 0. 0. 0. 0. 0.
      0. 0. 0. 0. 0. 0. 0. 0. 0. 0. 0. 0. 0. 0. 0. 0. 0. 0. 0. 0. 0. 0.
      0. 0. 0. 0. 0. 0. 0. 0. 0. 0. 0. 0. 0. 0. 0. 0. 0. 0. 0. 0. 0. 0.
      0. 0. 0. 0. 0. 0. 0. 0. 0. 0. 0. 0. 0. 0. 0. 0. 0. 0. 0. 0. 0. 0.
      0. 0. 0. 0. 0. 6.34920644e-003 4.44444455e-002 2.28571430e-001
      4.47619051e-001 3.93650800e-001 6.15873039e-001 5.33333361e-001</_>
    <_>
      4.24242437e-001 4.84848499e-001 5.45454562e-001 5.45454562e-001
      5.45454562e-001 4.84848499e-001 4.84848499e-001 5.75757623e-001
      6.66666687e-001 6.66666687e-001 6.96969748e-001 7.57575750e-001
      7.57575750e-001 7.57575750e-001 8.18181872e-001 8.78787875e-001
      8.78787875e-001 8.78787875e-001 8.78787875e-001 8.48484874e-001
      8.48484874e-001 8.18181872e-001 8.18181872e-001 7.87878811e-001
      7.27272749e-001 6.66666687e-001 6.06060624e-001 5.15151501e-001
      5.15151501e-001 5.15151501e-001 4.84848499e-001 4.84848499e-001
      4.84848499e-001 4.84848499e-001 5.45454562e-001 5.45454562e-001
      6.06060624e-001 6.96969748e-001 7.27272749e-001 7.57575750e-001
      7.87878811e-001 7.87878811e-001 7.87878811e-001 8.18181872e-001
      8.78787875e-001 8.78787875e-001 9.09090936e-001 9.09090936e-001
      9.39393997e-001 9.39393997e-001 9.39393997e-001 9.69696999e-001
      9.69696999e-001 9.69696999e-001 1. 1. 9.69696999e-001
      8.78787875e-001 6.66666687e-001 3.63636374e-001 4.24242437e-001
      6.06060624e-001 8.48484874e-001 9.09090936e-001 9.09090936e-001
      9.39393997e-001 9.39393997e-001 9.39393997e-001 9.39393997e-001
      8.78787875e-001 8.78787875e-001 8.78787875e-001 8.48484874e-001
      8.18181872e-001 8.18181872e-001 8.48484874e-001 8.78787875e-001
      9.09090936e-001 9.09090936e-001 9.09090936e-001 9.09090936e-001
      9.09090936e-001 9.09090936e-001 9.39393997e-001 9.09090936e-001
      8.18181872e-001 7.87878811e-001 7.57575750e-001 7.87878811e-001
      7.87878811e-001 8.18181872e-001 8.18181872e-001 8.48484874e-001
      8.48484874e-001 8.18181872e-001 8.48484874e-001 8.48484874e-001
      8.78787875e-001 8.18181872e-001 6.06060624e-001 3.03030312e-001
      2.12121218e-001 4.84848499e-001 4.84848499e-001 5.15151501e-001
      5.15151501e-001 5.15151501e-001 5.15151501e-001 5.15151501e-001
      5.15151501e-001 5.15151501e-001 6.06060624e-001 6.66666687e-001
      6.66666687e-001 7.27272749e-001 7.27272749e-001 7.27272749e-001
      6.96969748e-001 6.96969748e-001 6.96969748e-001 6.96969748e-001
      6.66666687e-001 6.66666687e-001 6.36363626e-001 6.06060624e-001
      5.45454562e-001 5.15151501e-001 4.54545468e-001 3.63636374e-001
      3.93939406e-001 4.24242437e-001 4.24242437e-001 4.54545468e-001
      4.24242437e-001 1.81818187e-001 3.03030312e-002 3.73134315e-002
      4.47761193e-002 5.22388034e-002 1.41791046e-001 2.98507452e-001
      3.95522386e-001 4.17910427e-001 5.00000000e-001 5.89552224e-001
      6.79104447e-001 7.76119411e-001 9.17910397e-001 9.70149219e-001
      9.32835817e-001 9.92537320e-001 1. 9.32835817e-001 9.40298498e-001
      9.92537320e-001 9.85074580e-001 9.47761178e-001 8.80596995e-001
      8.65671635e-001 9.10447717e-001 8.73134315e-001 8.73134315e-001
      7.38805950e-001 7.23880589e-001 7.16417909e-001 6.79104447e-001
      6.26865685e-001 6.11940265e-001 6.41791046e-001 5.44776082e-001
      3.13432842e-001 1.11940295e-001 4.22641516e-001 1.88679248e-003
      7.73584917e-002 6.41509444e-002 0. 3.16981137e-001 8.67924541e-002
      0. 1.79245293e-001 1.88679248e-002 0. 1.75471693e-001 0.
      1.73584908e-001 1.35849059e-001 1.88679248e-002 2.79245287e-001
      5.66037744e-003 3.01886797e-002 7.16981143e-002 6.22641519e-002
      3.98113221e-001 2.37735853e-001 4.41509426e-001 9.62264165e-002
      1.07547171e-001 6.15094364e-001 0. 1.13207549e-002 3.77358496e-003
      1. 0. 2.75471687e-001 3.77358496e-003 1.26415104e-001
      2.15094343e-001 5.84905669e-002 0. 7.54716992e-003 7.54716992e-003
      1.32075474e-002 0. 6.41509444e-002 3.58490571e-002 0.
      7.54716992e-003 0. 0. 1.32075474e-002 0. 1.15094341e-001
      1.88679248e-003 0. 0. 0. 3.20754722e-002 3.77358496e-003
      7.54716992e-003 0. 0. 1.32075474e-002 0. 0. 3.77358496e-003 0. 0.
      7.16981143e-002 0. 0. 0. 2.83018872e-002 0. 0. 1.13207549e-002 0.
      9.62264165e-002 0. 0. 0. 9.43396240e-003 9.81132090e-002 0. 0.
      9.81132090e-002 0. 7.54716992e-003 0. 5.47169819e-002 0. 0.
      7.54716992e-002 0. 0. 0. 0. 0. 1.39622644e-001 0. 0. 0. 0.
      5.66037744e-002 0. 1.26415104e-001 0. 0. 1.69811323e-002 0. 0.
      4.52830195e-002 5.09433970e-002 1.32075474e-002 0. 1.88679248e-003
      2.83018872e-002 3.58490571e-002 0. 0. 0. 0. 7.54716992e-002 0. 0.
      0. 1.88679248e-002 3.58490571e-002 3.96226421e-002 0. 0. 0.
      9.43396240e-003 0. 9.43396240e-003 1.13207549e-002 0. 0. 0. 0. 0.
      0. 3.58490571e-002 1.32075474e-002 0. 0. 0. 2.64150947e-002
      1.88679248e-003 0. 0. 0. 9.43396240e-003 0. 0. 7.54716992e-003 0.
      0. 3.96226421e-002 0. 1.69811323e-002 3.77358496e-003
      7.54716992e-003 3.77358496e-003 1.88679248e-003 1.32075474e-002
      4.15094346e-002 1.69811323e-002 1.69811323e-002 2.83018872e-002 0.
      4.33962271e-002 2.24528313e-001 1.13207549e-002 2.24528313e-001
      1.79245293e-001 2.39622653e-001 1.96226418e-001 1.22641511e-001
      2.86792457e-001 1.01886794e-001 1.88679248e-002</_>
    <_>
      0. 0. 0. 5.26315793e-002 5.26315793e-002 5.26315793e-002
      5.26315793e-002 5.26315793e-002 1.05263159e-001 1.57894731e-001
      1.57894731e-001 1.57894731e-001 1.05263159e-001 5.26315793e-002
      1.05263159e-001 2.10526317e-001 3.68421048e-001 4.73684222e-001
      5.26315808e-001 6.84210539e-001 7.36842096e-001 7.36842096e-001
      8.42105269e-001 9.47368443e-001 9.47368443e-001 1. 1. 1.
      9.47368443e-001 8.94736826e-001 6.84210539e-001 5.78947365e-001
      6.84210539e-001 6.84210539e-001 6.31578922e-001 4.73684222e-001
      4.21052635e-001 4.21052635e-001 3.15789461e-001 2.10526317e-001
      1.57894731e-001 0. 0. 0. 0. 0. 0. 0. 0. 0. 0. 0. 0. 0. 0. 0. 0. 0.
      0. 0. 0. 0. 0. 0. 0. 0. 0. 0. 0. 0. 0. 1.05263159e-001
      1.05263159e-001 1.57894731e-001 1.57894731e-001 1.05263159e-001
      1.05263159e-001 1.57894731e-001 2.63157904e-001 2.63157904e-001
      2.63157904e-001 1.57894731e-001 1.57894731e-001 2.10526317e-001
      3.15789461e-001 3.15789461e-001 3.68421048e-001 4.73684222e-001
      4.73684222e-001 5.26315808e-001 6.31578922e-001 7.36842096e-001
      7.89473712e-001 7.36842096e-001 7.89473712e-001 7.36842096e-001
      7.89473712e-001 6.84210539e-001 6.84210539e-001 6.84210539e-001
      7.36842096e-001 7.36842096e-001 7.89473712e-001 9.47368443e-001
      9.47368443e-001 8.42105269e-001 7.36842096e-001 6.84210539e-001
      5.26315808e-001 3.15789461e-001 1.57894731e-001 1.05263159e-001 0.
      0. 0. 0. 0. 1.05263159e-001 1.05263159e-001 1.57894731e-001
      1.05263159e-001 1.57894731e-001 1.05263159e-001 1.57894731e-001
      1.05263159e-001 1.05263159e-001 1.57894731e-001 1.05263159e-001
      1.05263159e-001 1.05263159e-001 1.05263159e-001 5.26315793e-002
      5.26315793e-002 0. 0. 0. 0. 3.68421048e-001 3.68421048e-001
      2.36842111e-001 2.10526317e-001 1.05263159e-001 1.05263159e-001
      1.57894731e-001 2.63157904e-001 4.47368413e-001 5.26315808e-001
      5.78947365e-001 8.68421078e-001 8.15789461e-001 8.15789461e-001
      7.36842096e-001 6.31578922e-001 9.21052635e-001 1. 9.21052635e-001
      8.68421078e-001 8.42105269e-001 9.21052635e-001 9.47368443e-001
      7.89473712e-001 7.36842096e-001 6.31578922e-001 6.84210539e-001
      5.26315808e-001 2.36842111e-001 4.73684222e-001 7.10526347e-001
      3.94736856e-001 3.94736856e-001 2.36842111e-001 0. 4.79915440e-001
      0. 0. 6.34249486e-003 0. 0. 6.34249449e-002 0. 0. 0.
      2.11416488e-003 4.22832975e-003 0. 1.03594080e-001 0. 0. 0. 0. 0.
      7.39957690e-002 1.54334038e-001 3.17124724e-002 0. 0.
      1.79704010e-001 2.32558139e-002 0. 0. 0. 0. 2.34672308e-001 0. 0.
      0. 1.05708241e-002 2.95983087e-002 1.58562362e-001 0. 0. 0.
      2.11416488e-003 0. 2.05073997e-001 3.80549692e-002 0. 0. 0. 0. 0.
      0. 2.38900632e-001 1.05708241e-002 0. 0. 0. 4.86257933e-002
      1.05708241e-002 0. 0. 0. 2.11416483e-002 0. 0. 6.34249486e-003 0.
      1.47991544e-002 1.45877376e-001 2.11416488e-003 1.90274846e-002
      6.34249486e-003 6.76532760e-002 0. 0. 4.65116277e-002
      7.61099383e-002 4.41860467e-001 2.11416488e-003 4.22832975e-003 0.
      2.74841432e-002 3.08668077e-001 4.22832975e-003 0. 3.06553900e-001
      3.38266380e-002 3.80549692e-002 0. 1.01479918e-001 8.45665950e-003
      0. 2.60042280e-001 4.22832975e-003 6.34249486e-003 6.13107830e-002
      0. 4.65116277e-002 5.83509505e-001 0. 6.97674379e-002
      6.34249486e-003 4.22832975e-003 1.92388996e-001 4.22832975e-003
      3.06553900e-001 2.74841432e-002 1.26849897e-002 2.95983087e-002 0.
      0. 6.76532760e-002 1. 2.95983087e-002 0. 1.69133190e-002
      3.80549669e-001 7.18816072e-002 1.69133190e-002 0. 0. 0.
      8.52008462e-001 0. 1.47991544e-002 0. 5.28541207e-002
      1.26849890e-001 5.53911209e-001 0. 1.26849897e-002 0.
      3.80549692e-002 0. 1.90274835e-001 8.24524313e-002 4.22832975e-003
      6.34249486e-003 2.11416488e-003 0. 1.90274846e-002 2.11416488e-003
      3.34038049e-001 2.53699794e-002 1.90274846e-002 2.11416488e-003 0.
      1.18393235e-001 1.26849897e-002 1.69133190e-002 4.22832975e-003 0.
      9.30232555e-002 0. 4.22832975e-003 1.90274846e-002 0.
      1.47991544e-002 1.39534876e-001 1.47991544e-002 6.34249486e-003
      6.34249486e-003 3.17124724e-002 0. 8.45665950e-003 1.90274846e-002
      2.32558139e-002 2.34672308e-001 2.11416488e-003 1.26849897e-002
      4.22832975e-003 1.05708241e-002 5.70824519e-002 0. 0.
      1.50105700e-001 0. 0. 0. 1.69133190e-002 0. 0.</_>
    <_>
      6.15384638e-001 6.92307711e-001 6.92307711e-001 6.92307711e-001
      6.92307711e-001 6.92307711e-001 6.15384638e-001 6.15384638e-001
      6.15384638e-001 6.15384638e-001 6.15384638e-001 5.38461566e-001
      5.38461566e-001 5.38461566e-001 5.38461566e-001 5.38461566e-001
      5.38461566e-001 5.38461566e-001 5.38461566e-001 5.38461566e-001
      5.38461566e-001 5.38461566e-001 5.38461566e-001 5.38461566e-001
      5.38461566e-001 5.38461566e-001 5.38461566e-001 5.38461566e-001
      6.15384638e-001 6.15384638e-001 6.15384638e-001 6.15384638e-001
      6.15384638e-001 6.15384638e-001 6.15384638e-001 6.92307711e-001
      6.92307711e-001 6.92307711e-001 6.92307711e-001 6.92307711e-001
      6.92307711e-001 7.69230783e-001 6.15384638e-001 4.61538494e-001
      1.53846160e-001 7.69230798e-002 2.30769247e-001 2.30769247e-001
      2.30769247e-001 2.30769247e-001 2.30769247e-001 2.30769247e-001
      2.30769247e-001 2.30769247e-001 3.07692319e-001 3.07692319e-001
      1.53846160e-001 2.30769247e-001 3.84615391e-001 6.15384638e-001
      6.92307711e-001 6.92307711e-001 3.84615391e-001 7.69230798e-002
      3.07692319e-001 3.07692319e-001 2.30769247e-001 0. 0. 0. 0. 0. 0.
      0. 0. 0. 0. 0. 7.69230798e-002 5.38461566e-001 8.46153855e-001 1.
      1. 9.23076987e-001 9.23076987e-001 9.23076987e-001 8.46153855e-001
      7.69230783e-001 7.69230783e-001 7.69230783e-001 7.69230783e-001
      7.69230783e-001 7.69230783e-001 6.92307711e-001 6.92307711e-001
      6.92307711e-001 6.92307711e-001 6.15384638e-001 6.15384638e-001
      5.38461566e-001 5.38461566e-001 5.38461566e-001 5.38461566e-001
      5.38461566e-001 5.38461566e-001 5.38461566e-001 5.38461566e-001
      6.15384638e-001 4.61538494e-001 4.61538494e-001 4.61538494e-001
      4.61538494e-001 4.61538494e-001 5.38461566e-001 5.38461566e-001
      5.38461566e-001 5.38461566e-001 5.38461566e-001 5.38461566e-001
      6.15384638e-001 6.15384638e-001 6.15384638e-001 4.61538494e-001
      4.61538494e-001 4.61538494e-001 5.38461566e-001 5.38461566e-001
      5.38461566e-001 5.38461566e-001 5.38461566e-001 5.38461566e-001
      5.38461566e-001 5.38461566e-001 5.38461566e-001 6.15384638e-001
      6.15384638e-001 3.29999983e-001 3.10000002e-001 2.89999992e-001
      2.19999999e-001 1.70000002e-001 7.00000003e-002 2.99999993e-002
      4.99999970e-002 9.99999940e-002 1.49999991e-001 5.69999993e-001 1.
      7.09999979e-001 4.19999987e-001 0. 0. 0. 0. 0. 0. 5.19999981e-001
      9.39999998e-001 9.09999967e-001 4.19999987e-001 0. 0. 0. 0.
      9.99999978e-003 1.70000002e-001 2.29999989e-001 3.89999986e-001
      5.29999971e-001 1.19999997e-001 2.89999992e-001 0. 9.86842141e-002
      0. 0. 0. 0. 1.31578948e-002 1.64473690e-002 0. 6.57894760e-002
      1.64473690e-002 1.64473690e-002 9.53947380e-002 9.86842141e-002
      2.89473683e-001 2.40131587e-001 4.04605269e-001 5.95394731e-001
      8.28947365e-001 6.18421078e-001 6.71052635e-001 8.94736826e-001
      9.34210539e-001 1. 3.65131587e-001 6.28289461e-001 3.71710539e-001
      6.54605269e-001 5.59210517e-002 2.56578952e-001 1.21710524e-001
      7.36842096e-001 3.94736826e-002 2.86184222e-001 1.57894731e-001
      2.92763174e-001 5.19736826e-001 2.33552635e-001 1.74342111e-001
      2.59868413e-001 1.18421055e-001 1.48026317e-001 1.05263159e-001
      2.53289461e-001 3.51973683e-001 8.55263174e-002 1.41447365e-001
      1.77631587e-001 6.90789446e-002 2.66447365e-001 1.05263159e-001
      1.71052635e-001 2.23684207e-001 1.05263159e-001 1.31578948e-002
      5.92105277e-002 1.38157889e-001 8.88157934e-002 3.61842103e-002
      1.64473690e-002 0. 5.92105277e-002 0. 0. 2.30263155e-002 0.
      1.64473690e-002 1.15131579e-001 3.28947371e-003 1.31578948e-002
      3.28947371e-003 4.60526310e-002 0. 0. 9.86842066e-003 0.
      1.18421055e-001 0. 0. 0. 0. 4.60526310e-002 0. 0. 9.86842141e-002
      0. 0. 0. 0. 0. 0. 1.64473690e-002 0. 0. 0. 0. 0. 1.54605269e-001
      0. 6.57894742e-003 0. 0. 3.61842103e-002 0. 6.25000000e-002 0. 0.
      0. 0. 0. 0. 1.18421055e-001 0. 0. 0. 1.08552635e-001
      1.31578948e-002 0. 0. 0. 0. 7.89473653e-002 0. 0. 0. 0. 0.
      8.88157934e-002 0. 0. 0. 0. 0. 2.63157897e-002 1.64473690e-002 0.
      0. 0. 0. 0. 0. 4.27631587e-002 0. 0. 0. 0. 3.28947371e-003 0. 0.
      0. 0. 0. 0. 0. 0. 0. 0. 6.57894742e-003 0. 0. 0. 3.28947371e-003
      0. 0. 0. 0. 1.64473690e-002 0. 0. 0. 0. 6.57894742e-003 0. 0.
      1.97368413e-002 0. 0. 0. 0. 0. 0.</_>
    <_>
      0. 0. 0. 0. 0. 8.33333358e-002 1.66666672e-001 1.66666672e-001
      8.33333358e-002 8.33333358e-002 8.33333358e-002 8.33333358e-002
      8.33333358e-002 8.33333358e-002 1.66666672e-001 3.33333343e-001
      5.00000000e-001 5.00000000e-001 5.00000000e-001 5.00000000e-001
      5.83333373e-001 6.66666687e-001 6.66666687e-001 6.66666687e-001
      6.66666687e-001 6.66666687e-001 5.83333373e-001 5.83333373e-001
      5.83333373e-001 5.00000000e-001 5.00000000e-001 5.00000000e-001
      5.83333373e-001 6.66666687e-001 6.66666687e-001 7.50000000e-001
      7.50000000e-001 7.50000000e-001 7.50000000e-001 6.66666687e-001
      6.66666687e-001 6.66666687e-001 6.66666687e-001 6.66666687e-001
      5.00000000e-001 5.00000000e-001 5.83333373e-001 7.50000000e-001
      7.50000000e-001 7.50000000e-001 7.50000000e-001 7.50000000e-001
      7.50000000e-001 7.50000000e-001 7.50000000e-001 7.50000000e-001
      6.66666687e-001 6.66666687e-001 6.66666687e-001 5.83333373e-001
      6.66666687e-001 6.66666687e-001 7.50000000e-001 7.50000000e-001
      7.50000000e-001 7.50000000e-001 7.50000000e-001 7.50000000e-001
      7.50000000e-001 7.50000000e-001 6.66666687e-001 5.83333373e-001
      5.00000000e-001 5.00000000e-001 6.66666687e-001 7.50000000e-001
      7.50000000e-001 8.33333373e-001 8.33333373e-001 9.16666687e-001 1.
      9.16666687e-001 9.16666687e-001 9.16666687e-001 7.50000000e-001
      7.50000000e-001 7.50000000e-001 7.50000000e-001 9.16666687e-001
      9.16666687e-001 9.16666687e-001 8.33333373e-001 8.33333373e-001
      8.33333373e-001 8.33333373e-001 8.33333373e-001 8.33333373e-001
      6.66666687e-001 6.66666687e-001 5.83333373e-001 5.83333373e-001
      6.66666687e-001 7.50000000e-001 7.50000000e-001 7.50000000e-001
      7.50000000e-001 7.50000000e-001 7.50000000e-001 7.50000000e-001
      7.50000000e-001 6.66666687e-001 5.00000000e-001 5.83333373e-001
      6.66666687e-001 8.33333373e-001 8.33333373e-001 8.33333373e-001
      8.33333373e-001 8.33333373e-001 7.50000000e-001 7.50000000e-001
      5.00000000e-001 5.83333373e-001 5.00000000e-001 5.00000000e-001
      5.83333373e-001 6.66666687e-001 6.66666687e-001 6.66666687e-001
      6.66666687e-001 5.00000000e-001 3.33333343e-001 0. 0. 0. 0. 0.
      1.73913036e-002 9.65217352e-001 9.30434763e-001 8.08695614e-001
      7.73913026e-001 9.65217352e-001 9.99999940e-001 9.91304278e-001
      9.21739101e-001 6.17391288e-001 1.65217385e-001 7.82608688e-002
      4.34782580e-002 0. 0. 0. 0. 0. 0. 0. 0. 0. 0. 0. 0. 0. 0. 0. 0.
      3.47826071e-002 4.34782580e-002 9.56521705e-002 1.04347825e-001 0.
      0. 1.57377049e-001 0. 0. 0. 0. 0. 1.63934417e-002 0. 0. 0. 0.
      1.63934426e-003 0. 1.47540979e-002 0. 1.63934426e-003
      1.63934426e-003 0. 0. 1.31147541e-002 2.78688520e-002
      3.27868853e-003 0. 0. 3.27868834e-002 2.78688520e-002 0. 0. 0. 0.
      8.36065561e-002 0. 0. 0. 3.27868853e-003 3.93442623e-002
      2.78688520e-002 0. 9.83606558e-003 0. 1.14754103e-002 0.
      4.09836061e-002 4.59016412e-002 0. 2.13114750e-002 3.60655747e-002
      0. 3.77049185e-002 3.27868853e-003 2.57377058e-001 5.57377040e-002
      3.77049185e-002 8.19672085e-003 2.45901644e-002 8.52458999e-002
      7.04918057e-002 5.73770478e-002 2.95081958e-002 1.63934426e-003
      1.49180323e-001 0. 6.06557392e-002 7.21311495e-002 3.27868853e-003
      6.06557392e-002 3.72131139e-001 7.70491809e-002 1.03278689e-001
      1.18032783e-001 2.34426230e-001 2.13114750e-002 3.27868834e-002
      1.37704924e-001 1.18032783e-001 3.68852466e-001 1.80327874e-002
      1.80327874e-002 0. 6.55737668e-002 3.21311474e-001 8.19672085e-003
      9.83606558e-003 3.09836060e-001 5.08196726e-002 4.09836061e-002
      1.63934426e-003 1.90163940e-001 1.31147541e-002 9.83606558e-003
      2.27868855e-001 4.91803279e-003 1.96721312e-002 5.73770478e-002
      9.83606558e-003 9.01639313e-002 4.04918045e-001 4.91803279e-003
      3.11475415e-002 1.63934426e-003 9.83606558e-003 1.14754096e-001
      1.63934426e-003 3.67213130e-001 1.31147541e-002 6.55737706e-003
      1.47540979e-002 3.27868853e-003 3.27868853e-003 8.85245875e-002 1.
      2.95081958e-002 4.91803279e-003 8.19672085e-003 4.47540998e-001
      8.03278685e-002 1.63934426e-003 0. 0. 0. 1.37704924e-001 0. 0. 0.
      4.91803279e-003 7.54098371e-002 8.19672123e-002 0. 0. 0.
      1.63934426e-003 0. 5.24590164e-002 3.60655747e-002 0. 0. 0. 0. 0.
      0. 7.04918057e-002 3.60655747e-002 0. 0. 0. 2.95081958e-002
      2.13114750e-002 6.55737706e-003 0. 0. 5.08196726e-002 0. 0.
      9.83606558e-003 0. 6.55737706e-003 3.27868834e-002 0.
      1.63934426e-003 0. 8.19672085e-003 0. 0. 4.91803279e-003 0.
      2.45901644e-002 0. 0. 0. 0. 4.91803279e-003 0. 0. 4.91803279e-003
      0. 0. 0. 1.63934426e-003 0. 0.</_>
    <_>
      8.00000012e-001 6.00000024e-001 6.00000024e-001 8.00000012e-001
      8.00000012e-001 6.00000024e-001 6.00000024e-001 8.00000012e-001
      8.00000012e-001 8.00000012e-001 6.00000024e-001 6.00000024e-001
      6.00000024e-001 6.00000024e-001 6.00000024e-001 8.00000012e-001
      8.00000012e-001 8.00000012e-001 8.00000012e-001 8.00000012e-001
      8.00000012e-001 8.00000012e-001 8.00000012e-001 8.00000012e-001
      8.00000012e-001 8.00000012e-001 6.00000024e-001 6.00000024e-001
      8.00000012e-001 8.00000012e-001 8.00000012e-001 8.00000012e-001
      8.00000012e-001 8.00000012e-001 8.00000012e-001 8.00000012e-001
      8.00000012e-001 8.00000012e-001 1. 8.00000012e-001 8.00000012e-001
      8.00000012e-001 8.00000012e-001 8.00000012e-001 8.00000012e-001
      6.00000024e-001 8.00000012e-001 8.00000012e-001 8.00000012e-001
      8.00000012e-001 8.00000012e-001 8.00000012e-001 1. 6.00000024e-001
      6.00000024e-001 8.00000012e-001 8.00000012e-001 8.00000012e-001
      8.00000012e-001 8.00000012e-001 8.00000012e-001 8.00000012e-001
      6.00000024e-001 8.00000012e-001 8.00000012e-001 8.00000012e-001
      8.00000012e-001 8.00000012e-001 8.00000012e-001 8.00000012e-001
      6.00000024e-001 8.00000012e-001 8.00000012e-001 8.00000012e-001
      8.00000012e-001 8.00000012e-001 8.00000012e-001 8.00000012e-001
      8.00000012e-001 1. 6.00000024e-001 6.00000024e-001 8.00000012e-001
      8.00000012e-001 8.00000012e-001 8.00000012e-001 8.00000012e-001
      8.00000012e-001 8.00000012e-001 8.00000012e-001 8.00000012e-001
      8.00000012e-001 6.00000024e-001 6.00000024e-001 6.00000024e-001
      6.00000024e-001 6.00000024e-001 6.00000024e-001 6.00000024e-001
      6.00000024e-001 8.00000012e-001 6.00000024e-001 6.00000024e-001
      6.00000024e-001 6.00000024e-001 6.00000024e-001 8.00000012e-001
      8.00000012e-001 8.00000012e-001 8.00000012e-001 6.00000024e-001
      6.00000024e-001 8.00000012e-001 8.00000012e-001 6.00000024e-001
      6.00000024e-001 6.00000024e-001 6.00000024e-001 6.00000024e-001
      6.00000024e-001 6.00000024e-001 6.00000024e-001 6.00000024e-001
      8.00000012e-001 8.00000012e-001 8.00000012e-001 1. 8.00000012e-001
      1. 1. 1. 1. 8.00000012e-001 2.00000003e-001 0. 0. 2.77777780e-002
      6.94444478e-002 1.38888896e-001 1.66666672e-001 2.50000000e-001
      2.63888896e-001 2.91666657e-001 3.33333343e-001 3.47222239e-001
      3.47222239e-001 3.88888896e-001 4.44444448e-001 5.41666687e-001
      6.66666687e-001 1. 8.61111104e-001 6.94444478e-001 9.72222239e-002
      0. 0. 0. 0. 0. 0. 0. 0. 0. 0. 0. 0. 0. 0. 0. 0. 0. 0.
      7.27272749e-001 0. 0. 0. 0. 0. 4.10557166e-002 0. 0. 0. 0. 0. 0.
      4.69208211e-002 0. 0. 0. 0. 0. 0. 2.25806445e-001 0. 0. 0.
      6.45161271e-002 5.86510263e-003 0. 0. 0. 0. 4.69208211e-001 0. 0.
      0. 2.93255132e-003 8.79765376e-002 2.02346042e-001 0. 0. 0.
      2.34604105e-002 0. 2.11143702e-001 1.46627560e-001 0.
      2.93255132e-003 0. 0. 8.21114331e-002 0. 5.01466274e-001
      1.70087978e-001 7.33137801e-002 0. 2.93255132e-003 2.75659829e-001
      8.50439891e-002 3.22580636e-002 5.86510263e-003 0. 2.66862184e-001
      0. 1.46627566e-002 4.10557166e-002 0. 3.81231681e-002
      5.71847498e-001 3.81231681e-002 9.09090936e-002 8.50439891e-002
      3.43108505e-001 2.63929628e-002 8.79765395e-003 2.60997057e-001
      2.87390023e-001 7.80058622e-001 4.98533733e-002 2.63929628e-002
      5.86510263e-003 2.37536654e-001 9.70674515e-001 8.79765395e-003 0.
      5.86510241e-001 1.26099706e-001 9.09090936e-002 2.05278583e-002
      4.28152502e-001 2.63929628e-002 2.93255132e-003 5.54252207e-001
      2.93255132e-003 1.17302053e-002 1.67155430e-001 0. 1.52492672e-001
      5.80645144e-001 0. 8.50439891e-002 8.79765395e-003 0.
      1.73020527e-001 2.93255132e-003 2.72727281e-001 2.05278583e-002 0.
      1.75953079e-002 0. 0. 4.10557166e-002 7.06744850e-001 0. 0. 0.
      2.37536654e-001 1.46627566e-002 0. 0. 0. 0. 1. 0. 0. 0. 0.
      1.31964803e-001 4.31085050e-001 0. 0. 0. 0. 0. 3.22580636e-002 0.
      0. 0. 0. 0. 0. 0. 2.72727281e-001 0. 0. 0. 0. 0. 0. 0. 0. 0.
      2.93255132e-003 0. 0. 0. 0. 0. 1.75953079e-002 0. 0. 0. 0. 0. 0.
      0. 0. 4.28152502e-001 0. 0. 0. 0. 5.86510263e-003 0. 0.
      6.45161271e-002 0. 0. 0. 0. 0. 0.</_>
    <_>
      8.61111104e-001 9.16666687e-001 1. 1. 1. 1. 1. 9.44444478e-001
      9.44444478e-001 1. 9.44444478e-001 9.16666687e-001 8.88888896e-001
      8.88888896e-001 8.88888896e-001 8.88888896e-001 8.88888896e-001
      8.88888896e-001 8.88888896e-001 8.88888896e-001 8.88888896e-001
      8.88888896e-001 8.88888896e-001 8.88888896e-001 8.88888896e-001
      8.88888896e-001 8.88888896e-001 8.88888896e-001 8.88888896e-001
      8.88888896e-001 8.61111104e-001 7.77777791e-001 6.38888896e-001
      5.55555582e-001 4.72222239e-001 3.88888896e-001 2.50000000e-001
      2.50000000e-001 3.88888896e-001 5.27777791e-001 5.55555582e-001
      6.38888896e-001 7.22222209e-001 7.77777791e-001 7.77777791e-001
      7.77777791e-001 7.77777791e-001 7.77777791e-001 7.77777791e-001
      7.77777791e-001 7.77777791e-001 7.77777791e-001 7.77777791e-001
      7.77777791e-001 8.05555582e-001 8.33333313e-001 9.16666687e-001 1.
      1. 1. 1. 9.72222209e-001 9.16666687e-001 8.61111104e-001
      8.61111104e-001 8.33333313e-001 7.77777791e-001 7.22222209e-001
      6.94444478e-001 6.66666687e-001 6.11111104e-001 6.66666687e-001
      6.94444478e-001 7.22222209e-001 7.50000000e-001 7.50000000e-001
      6.66666687e-001 5.83333313e-001 5.00000000e-001 5.83333313e-001
      5.55555582e-001 5.27777791e-001 4.72222239e-001 4.72222239e-001
      5.00000000e-001 5.00000000e-001 5.00000000e-001 5.55555582e-001
      5.83333313e-001 4.44444448e-001 4.16666657e-001 3.61111104e-001
      4.16666657e-001 4.16666657e-001 3.88888896e-001 3.88888896e-001
      4.72222239e-001 5.00000000e-001 5.55555582e-001 5.27777791e-001
      4.72222239e-001 5.00000000e-001 4.44444448e-001 4.72222239e-001
      5.00000000e-001 5.00000000e-001 5.83333313e-001 5.83333313e-001
      6.38888896e-001 7.77777791e-001 8.05555582e-001 8.61111104e-001
      9.16666687e-001 9.72222209e-001 1. 1. 1. 1. 1. 1. 1. 1. 1.
      9.16666687e-001 8.61111104e-001 7.77777791e-001 6.38888896e-001
      5.83333313e-001 4.72222239e-001 4.16666657e-001 2.77777791e-001
      2.22222224e-001 1.38888896e-001 2.77777780e-002 2.77777780e-002 0.
      9.77443635e-001 9.62406039e-001 9.84962404e-001 1. 1.
      9.92481232e-001 9.92481232e-001 9.92481232e-001 9.84962404e-001
      9.54887271e-001 8.42105269e-001 8.04511309e-001 6.31578982e-001
      6.39097750e-001 6.31578982e-001 8.64661694e-001 8.34586501e-001
      5.33834577e-001 4.96240616e-001 5.18796980e-001 5.78947365e-001
      6.91729367e-001 6.24060154e-001 6.01503789e-001 5.93984962e-001
      6.01503789e-001 6.99248135e-001 7.06766963e-001 6.76691771e-001
      5.86466193e-001 2.93233097e-001 2.78195500e-001 4.36090231e-001
      4.21052635e-001 8.12030077e-001 8.64661694e-001 4.85148519e-001
      9.65346545e-002 1.33663371e-001 1.48514852e-001 7.67326728e-002
      5.42079210e-001 1.70792073e-001 2.47524753e-002 2.02970296e-001
      1.03960395e-001 7.42574222e-003 1.93069309e-001 0. 2.27722764e-001
      7.42574260e-002 9.90098994e-003 7.17821792e-002 2.47524749e-003
      1.23762377e-002 9.15841535e-002 6.68316856e-002 5.69306910e-002
      4.95049497e-003 9.90098994e-003 8.66336599e-002 6.43564314e-002
      7.42574222e-003 0. 0. 0. 1.38613865e-001 0. 4.95049497e-003 0.
      3.71287130e-002 7.42574260e-002 6.93069324e-002 0. 4.95049497e-003
      2.47524749e-003 2.47524753e-002 0. 5.19801974e-002 5.94059378e-002
      0. 1.73267331e-002 4.95049497e-003 0. 2.97029689e-002 0.
      1.33663371e-001 3.46534662e-002 2.97029689e-002 0. 4.95049497e-003
      5.69306910e-002 4.45544533e-002 2.22772267e-002 0. 0.
      1.63366333e-001 0. 0. 1.41089112e-001 0. 3.96039598e-002
      4.50495034e-001 6.43564314e-002 4.33168322e-001 2.30198011e-001
      3.44059408e-001 8.41584131e-002 0. 5.44554472e-001 7.74752438e-001
      1.01485148e-001 3.96039598e-002 0. 0. 4.80198026e-001 1. 0. 0.
      1.46039605e-001 1.73267331e-002 1.95544556e-001 0. 9.82673228e-001
      0. 0. 3.26732665e-001 0. 0. 2.35148504e-001 0. 1.98019799e-002
      2.20297024e-001 0. 2.97029689e-002 0. 0. 6.93069324e-002 0.
      7.92079195e-002 9.90098994e-003 0. 0. 0. 0. 2.47524749e-003
      3.96039598e-002 0. 0. 0. 7.42574222e-003 0. 0. 0. 0. 0.
      3.96039598e-002 0. 0. 0. 0. 0. 0. 0. 0. 0. 0. 0. 0. 0. 0. 0. 0. 0.
      0. 0. 3.21782157e-002 7.42574222e-003 0. 0. 0. 1.23762377e-002 0.
      0. 0. 0. 1.23762377e-002 0. 0. 0. 0. 0. 1.23762377e-002 0.
      2.47524749e-003 0. 7.42574222e-003 0. 0. 4.95049497e-003
      1.48514844e-002 5.94059378e-002 1.48514844e-002 4.95049497e-003 0.
      2.47524753e-002 1.03960395e-001 2.22772267e-002 7.42574222e-003
      6.68316856e-002 9.40594077e-002 3.71287130e-002 6.93069324e-002
      2.05445543e-001 1.16336629e-001 5.44554442e-002</_>
    <_>
      0. 0. 0. 0. 0. 0. 0. 0. 0. 0. 0. 0. 0. 0. 0. 0. 0. 0.
      1.29032254e-001 3.54838699e-001 3.87096763e-001 4.83870953e-001
      5.16129017e-001 5.48387051e-001 5.80645144e-001 6.12903237e-001
      6.45161271e-001 6.45161271e-001 6.77419305e-001 7.09677398e-001
      7.09677398e-001 6.77419305e-001 6.77419305e-001 7.09677398e-001
      6.77419305e-001 6.77419305e-001 5.48387051e-001 4.19354826e-001
      9.67741907e-002 0. 0. 0. 6.45161271e-002 6.45161271e-002
      9.67741907e-002 9.67741907e-002 9.67741907e-002 9.67741907e-002
      1.61290318e-001 1.93548381e-001 1.93548381e-001 1.61290318e-001
      1.61290318e-001 1.29032254e-001 1.29032254e-001 1.29032254e-001
      1.61290318e-001 1.93548381e-001 2.25806445e-001 2.25806445e-001
      2.58064508e-001 2.58064508e-001 9.67741907e-002 0. 0. 0. 0. 0. 0.
      0. 0. 6.45161271e-002 1.29032254e-001 1.61290318e-001
      2.90322572e-001 4.83870953e-001 6.12903237e-001 5.48387051e-001
      4.51612890e-001 4.19354826e-001 3.87096763e-001 4.51612890e-001
      4.51612890e-001 4.83870953e-001 5.80645144e-001 6.45161271e-001
      7.09677398e-001 7.74193525e-001 8.38709652e-001 9.03225780e-001 1.
      1. 9.67741907e-001 9.67741907e-001 8.70967746e-001 5.16129017e-001
      2.25806445e-001 0. 0. 0. 0. 0. 0. 0. 0. 9.67741907e-002
      2.90322572e-001 3.54838699e-001 5.48387051e-001 4.83870953e-001
      5.16129017e-001 4.19354826e-001 3.87096763e-001 2.90322572e-001
      2.90322572e-001 2.58064508e-001 2.58064508e-001 4.19354826e-001
      4.83870953e-001 6.77419305e-001 6.77419305e-001 5.80645144e-001
      4.51612890e-001 5.48387051e-001 4.83870953e-001 4.83870953e-001
      1.93548381e-001 0. 0. 0. 3.22580636e-002 6.45161271e-002 0. 0. 0.
      0. 3.33333351e-002 1.33333340e-001 2.66666681e-001 4.00000036e-001
      3.83333355e-001 2.66666681e-001 2.66666681e-001 3.00000012e-001
      3.50000024e-001 4.16666687e-001 5.16666710e-001 6.00000024e-001
      6.83333397e-001 6.66666687e-001 6.83333397e-001 7.00000048e-001
      8.66666734e-001 9.83333409e-001 1. 9.33333397e-001 9.33333397e-001
      8.50000024e-001 9.16666687e-001 9.16666687e-001 8.83333385e-001
      8.33333373e-001 8.00000072e-001 7.00000048e-001 6.66666687e-001
      6.33333385e-001 4.83333349e-001 3.83333355e-001 3.33333343e-001
      2.00000018e-001 1.16666675e-001 0. 2.25950778e-001 0.
      1.56599544e-002 1.78970918e-002 0. 3.35570462e-002 7.82997757e-002
      0. 2.90827751e-002 0. 0. 4.25055921e-002 0. 2.32662201e-001 0. 0.
      4.47427295e-003 0. 0. 1.40939593e-001 3.13199088e-002
      1.20805368e-001 0. 2.90827751e-002 2.19239369e-001 1.00671142e-001
      0. 0. 0. 0. 2.30425060e-001 0. 2.23713648e-003 0. 5.81655502e-002
      3.10961962e-001 2.23713651e-001 0. 5.59284128e-002 3.13199088e-002
      7.38255009e-002 0. 6.19686782e-001 2.97539145e-001 0.
      4.02684584e-002 7.60626420e-002 0. 2.59507835e-001 3.57941836e-002
      2.43847877e-001 4.83221471e-001 2.55033553e-001 7.15883672e-002
      8.27740505e-002 4.45190161e-001 5.77181220e-001 7.38255009e-002
      1.78970918e-002 0. 1. 0. 5.14541380e-002 2.77404934e-001 0.
      7.60626420e-002 5.99552572e-001 6.71140924e-002 2.25950778e-001
      4.69798669e-002 3.87024611e-001 1.11856824e-002 0. 2.21476510e-001
      1.05145417e-001 1.70022368e-001 1.34228189e-002 2.23713648e-003 0.
      3.80313210e-002 1.56599551e-001 0. 0. 2.23713651e-001 0.
      8.94854590e-003 0. 5.59284128e-002 0. 0. 1.11856826e-001 0. 0.
      1.34228189e-002 0. 2.01342292e-002 2.05816552e-001 0.
      3.35570462e-002 0. 0. 3.13199088e-002 0. 1.07382551e-001
      2.46085003e-002 2.68456377e-002 3.35570462e-002 4.47427295e-003
      6.71140943e-003 2.46085003e-002 1.09619685e-001 2.23713648e-002
      2.46085003e-002 3.13199088e-002 2.46085003e-002 1.78970918e-002
      3.80313210e-002 0. 4.47427295e-003 0. 6.48769587e-002 0.
      4.47427295e-003 0. 0. 8.94854590e-003 0. 0. 0. 0. 2.23713648e-003
      0. 4.47427295e-003 8.94854590e-003 0. 0. 0. 0. 0. 0.
      8.94854590e-003 0. 0. 0. 0. 4.47427295e-003 0. 0. 0. 0.
      8.94854590e-003 0. 0. 0. 0. 0. 4.47427295e-003 0. 0. 0. 0. 0. 0.
      0. 0. 2.46085003e-002 0. 0. 0. 1.78970918e-002 2.23713648e-002 0.
      0. 2.23713648e-002 1.78970918e-002 4.47427295e-003 1.56599544e-002
      1.25279635e-001 3.80313210e-002 0.</_>
    <_>
      1. 9.16666687e-001 8.33333313e-001 8.33333313e-001 7.50000000e-001
      7.77777791e-001 7.77777791e-001 8.05555582e-001 8.05555582e-001
      7.77777791e-001 7.77777791e-001 7.77777791e-001 7.50000000e-001
      6.94444478e-001 6.66666687e-001 6.11111104e-001 5.83333313e-001
      5.55555582e-001 5.27777791e-001 5.00000000e-001 4.16666657e-001
      4.16666657e-001 3.61111104e-001 3.61111104e-001 3.33333343e-001
      3.05555552e-001 2.77777791e-001 2.50000000e-001 2.50000000e-001
      1.94444448e-001 1.66666672e-001 1.94444448e-001 1.66666672e-001
      1.66666672e-001 1.38888896e-001 1.38888896e-001 1.66666672e-001
      1.66666672e-001 1.66666672e-001 1.66666672e-001 1.38888896e-001
      1.38888896e-001 1.38888896e-001 2.50000000e-001 2.50000000e-001
      2.77777791e-001 3.05555552e-001 3.33333343e-001 3.88888896e-001
      3.88888896e-001 3.88888896e-001 3.88888896e-001 3.61111104e-001
      3.61111104e-001 3.88888896e-001 3.61111104e-001 4.16666657e-001
      3.88888896e-001 4.44444448e-001 4.72222239e-001 4.72222239e-001
      4.72222239e-001 4.72222239e-001 6.11111104e-001 5.55555582e-001
      5.55555582e-001 5.55555582e-001 6.11111104e-001 5.83333313e-001
      5.83333313e-001 5.83333313e-001 5.83333313e-001 5.83333313e-001
      5.83333313e-001 6.11111104e-001 6.38888896e-001 5.83333313e-001
      5.83333313e-001 5.55555582e-001 5.27777791e-001 4.44444448e-001
      4.16666657e-001 5.27777791e-001 5.83333313e-001 5.00000000e-001
      5.00000000e-001 5.27777791e-001 5.00000000e-001 2.50000000e-001
      2.50000000e-001 1.38888896e-001 1.38888896e-001 1.38888896e-001
      1.38888896e-001 1.38888896e-001 1.38888896e-001 1.38888896e-001
      1.38888896e-001 1.38888896e-001 1.38888896e-001 1.66666672e-001
      1.38888896e-001 1.38888896e-001 1.38888896e-001 1.66666672e-001
      1.66666672e-001 1.94444448e-001 1.94444448e-001 2.22222224e-001
      2.22222224e-001 2.77777791e-001 3.05555552e-001 3.33333343e-001
      3.33333343e-001 3.61111104e-001 3.88888896e-001 4.16666657e-001
      4.44444448e-001 4.44444448e-001 5.00000000e-001 5.55555582e-001
      6.11111104e-001 6.38888896e-001 6.66666687e-001 6.94444478e-001
      7.22222209e-001 7.22222209e-001 6.94444478e-001 7.50000000e-001
      6.66666687e-001 6.66666687e-001 7.22222209e-001 8.05555582e-001
      8.88888896e-001 9.72222209e-001 9.72222209e-001 5.64516112e-002
      6.45161271e-002 1.20967738e-001 2.01612890e-001 3.22580636e-001
      3.14516127e-001 3.95161271e-001 4.67741907e-001 4.75806445e-001
      4.11290318e-001 4.43548381e-001 4.27419335e-001 5.32258034e-001
      5.16129017e-001 3.95161271e-001 4.03225780e-001 4.67741907e-001
      4.75806445e-001 4.91935462e-001 5.16129017e-001 4.91935462e-001
      5.00000000e-001 4.35483873e-001 5.08064508e-001 5.96774161e-001
      5.96774161e-001 4.11290318e-001 4.19354826e-001 4.51612890e-001
      5.32258034e-001 8.30645144e-001 1. 9.91935432e-001 9.67741907e-001
      9.11290288e-001 4.51612890e-001 6.28742576e-002 0. 0. 0. 0. 0. 0.
      0. 0. 0. 0. 0. 0. 0. 0. 0. 0. 0. 0. 0. 1.19760484e-002 0. 0. 0.
      2.99401209e-003 0. 0. 0. 0. 0. 1.19760484e-002 0. 0. 0. 0. 0. 0.
      0. 0. 0. 0. 0. 8.98203626e-003 0. 0. 0. 0. 0. 0. 0.
      1.19760484e-002 0. 0. 0. 0. 1.19760484e-002 1.79640725e-002 0.
      2.99401209e-003 0. 3.29341330e-002 0. 2.99401209e-003 0. 0.
      2.99401209e-003 6.58682659e-002 2.99401209e-003 2.99401209e-003 0.
      3.89221571e-002 5.98802418e-003 5.98802418e-003 5.38922176e-002
      3.59281451e-002 1.16766468e-001 1.19760484e-002 0. 0.
      5.98802418e-002 2.30538934e-001 0. 0. 9.28143710e-002
      5.38922176e-002 6.28742576e-002 0. 2.93413192e-001 2.39520967e-002
      5.98802418e-003 3.98203611e-001 5.98802418e-003 2.99401209e-002
      1.82634741e-001 0. 4.22155708e-001 4.76047933e-001 0.
      4.58083838e-001 4.19161692e-002 1.79640725e-002 6.94610834e-001
      7.18562901e-002 1. 3.59281451e-001 2.66467065e-001 6.40718579e-001
      1.91616774e-001 1.61676645e-001 7.69461095e-001 4.82035935e-001
      9.19161737e-001 6.07784450e-001 3.92215580e-001 8.98203611e-001
      3.80239546e-001 6.46706581e-001 2.18562886e-001 1.91616774e-001
      2.75449097e-001 7.78443158e-001 3.29341330e-002 6.88622743e-002
      7.78443143e-002 2.48503000e-001 3.65269482e-001 2.42514983e-001
      2.09580846e-002 5.98802418e-002 2.09580846e-002 8.38323385e-002
      8.98203626e-003 3.59281451e-002 3.29341330e-002 0. 0. 0. 0. 0. 0.
      2.09580846e-002 0. 0. 0. 0. 2.99401209e-003 0. 0. 0. 0. 0. 0. 0.
      0. 0. 0. 2.99401209e-003 0. 0. 0. 0. 0. 0. 0. 0. 5.98802418e-003
      0. 0. 0. 0. 0. 0. 0. 0. 0. 0. 0. 0. 0. 0.</_>
    <_>
      0. 0. 0. 0. 2.17391312e-001 2.17391312e-001 2.60869563e-001
      3.47826093e-001 5.65217376e-001 5.65217376e-001 4.78260875e-001
      1.30434781e-001 0. 0. 0. 1.30434781e-001 1.73913047e-001
      2.60869563e-001 2.17391312e-001 1.73913047e-001 2.17391312e-001
      5.21739125e-001 6.52173936e-001 5.65217376e-001 4.34782624e-001
      5.21739125e-001 6.08695686e-001 8.26086998e-001 8.69565248e-001
      9.13043499e-001 9.56521749e-001 9.56521749e-001 8.69565248e-001
      7.39130437e-001 5.65217376e-001 3.04347843e-001 8.69565234e-002
      8.69565234e-002 8.69565234e-002 1.30434781e-001 1.30434781e-001
      1.30434781e-001 1.30434781e-001 1.30434781e-001 8.69565234e-002
      8.69565234e-002 8.69565234e-002 1.30434781e-001 8.69565234e-002
      1.73913047e-001 2.17391312e-001 2.60869563e-001 8.69565234e-002
      8.69565234e-002 8.69565234e-002 8.69565234e-002 8.69565234e-002
      8.69565234e-002 1.30434781e-001 2.17391312e-001 2.60869563e-001
      2.17391312e-001 2.17391312e-001 5.21739125e-001 6.95652187e-001
      7.82608688e-001 6.52173936e-001 7.82608688e-001 6.95652187e-001
      7.39130437e-001 6.95652187e-001 6.52173936e-001 5.65217376e-001
      7.39130437e-001 6.52173936e-001 6.08695686e-001 5.21739125e-001
      4.34782624e-001 1.73913047e-001 2.60869563e-001 2.60869563e-001
      2.60869563e-001 1.73913047e-001 1.73913047e-001 2.60869563e-001
      4.78260875e-001 5.21739125e-001 6.52173936e-001 6.95652187e-001
      6.08695686e-001 6.08695686e-001 5.65217376e-001 4.78260875e-001
      3.47826093e-001 2.60869563e-001 2.60869563e-001 3.47826093e-001
      2.60869563e-001 2.17391312e-001 1.73913047e-001 2.60869563e-001
      3.04347843e-001 3.04347843e-001 3.47826093e-001 3.04347843e-001
      3.47826093e-001 4.34782624e-001 4.34782624e-001 4.78260875e-001
      4.78260875e-001 5.21739125e-001 5.21739125e-001 5.21739125e-001
      3.47826093e-001 5.65217376e-001 6.95652187e-001 6.52173936e-001
      6.95652187e-001 9.56521749e-001 1. 9.56521749e-001 9.56521749e-001
      8.26086998e-001 4.78260875e-001 3.04347843e-001 3.47826093e-001
      2.17391312e-001 1.73913047e-001 1.73913047e-001 2.17391312e-001
      2.17391312e-001 1.30434781e-001 8.69565234e-002 0. 0. 0.
      4.16666679e-002 9.72222239e-002 1.52777776e-001 1.52777776e-001
      2.22222224e-001 3.47222239e-001 4.72222239e-001 5.97222209e-001
      7.22222209e-001 7.63888896e-001 6.80555582e-001 7.36111104e-001
      8.33333313e-001 8.19444478e-001 7.36111104e-001 6.66666687e-001
      7.08333313e-001 6.80555582e-001 4.44444448e-001 3.19444448e-001
      2.63888896e-001 3.33333343e-001 3.33333343e-001 2.91666657e-001
      2.63888896e-001 2.50000000e-001 2.36111119e-001 3.47222239e-001
      3.33333343e-001 5.41666687e-001 7.63888896e-001 1. 7.77777791e-001
      2.91666657e-001 4.16666679e-002 0. 1.15168542e-001 0.
      2.52808984e-002 6.46067411e-002 0. 9.83146057e-002 1.88202247e-001
      0. 1.09550565e-001 2.80898879e-003 0. 1.68539330e-001
      2.80898879e-003 3.34269673e-001 4.21348326e-002 1.68539323e-002
      1.32022470e-001 2.52808984e-002 3.93258445e-002 2.94943810e-001
      1.62921354e-001 3.06179792e-001 8.14606771e-002 1.79775283e-001
      3.03370804e-001 5.28089881e-001 2.69662917e-001 1.68539323e-002
      2.52808984e-002 3.08988765e-002 1. 0. 2.02247187e-001
      7.02247173e-002 5.61797738e-001 9.12921369e-001 6.26404524e-001
      3.37078646e-002 2.86516845e-001 1.03932582e-001 3.70786518e-001
      1.40449442e-002 4.83146071e-001 6.93820238e-001 2.80898884e-002
      1.57303378e-001 1.34831458e-001 1.12359552e-002 5.53370774e-001
      2.80898884e-002 3.03370804e-001 4.10112351e-001 2.38764048e-001
      2.24719103e-002 7.02247173e-002 2.24719107e-001 2.13483155e-001
      1.57303378e-001 2.80898884e-002 5.61797759e-003 1.68539330e-001
      2.80898879e-003 2.80898884e-002 1.03932582e-001 0. 1.96629222e-002
      1.29213482e-001 5.61797759e-003 8.42696615e-003 0. 1.96629222e-002
      0. 0. 1.96629222e-002 2.80898879e-003 9.55056176e-002 0. 0. 0.
      5.61797759e-003 3.08988765e-002 0. 0. 3.37078646e-002 0. 0. 0.
      2.24719103e-002 0. 0. 3.37078646e-002 0. 0. 8.42696615e-003 0.
      8.42696615e-003 3.93258445e-002 0. 2.52808984e-002 0. 0.
      4.49438207e-002 5.61797759e-003 7.58427009e-002 4.21348326e-002
      2.80898884e-002 7.02247173e-002 4.77528088e-002 4.21348326e-002
      1.12359554e-001 1.06741577e-001 1.85393259e-001 2.13483155e-001
      5.05617969e-002 1.51685402e-001 2.24719103e-002 3.65168527e-002 0.
      0. 0. 1.40449442e-002 0. 0. 0. 0. 5.61797759e-003 2.80898879e-003
      0. 0. 0. 2.80898879e-003 0. 2.80898879e-003 0. 0. 0. 0. 0. 0. 0.
      5.61797759e-003 0. 0. 0. 0. 0. 0. 0. 0. 0. 0. 0. 0. 0. 0. 0.
      2.80898879e-003 0. 0. 0. 8.42696615e-003 0. 0. 5.61797759e-003 0.
      4.77528088e-002 0. 0. 0. 5.61797759e-003 3.65168527e-002 0. 0.
      3.93258445e-002 0. 0. 0. 1.40449442e-002 0. 0.</_>
    <_>
      1. 1. 8.88888896e-001 7.50000000e-001 7.77777791e-001
      9.72222209e-001 9.72222209e-001 9.72222209e-001 7.77777791e-001
      4.72222239e-001 4.16666657e-001 6.11111104e-001 6.11111104e-001
      5.27777791e-001 4.16666657e-001 3.33333343e-001 3.05555552e-001
      4.44444448e-001 4.72222239e-001 6.38888896e-001 9.44444478e-001
      9.16666687e-001 9.44444478e-001 9.44444478e-001 8.61111104e-001
      7.77777791e-001 6.11111104e-001 5.55555582e-001 4.44444448e-001
      5.00000000e-001 5.55555582e-001 4.72222239e-001 3.61111104e-001
      3.33333343e-001 3.88888896e-001 4.72222239e-001 6.38888896e-001
      8.05555582e-001 9.72222209e-001 1. 1. 9.72222209e-001
      9.16666687e-001 8.88888896e-001 9.16666687e-001 9.16666687e-001
      9.44444478e-001 9.44444478e-001 8.33333313e-001 8.33333313e-001
      8.33333313e-001 8.61111104e-001 7.50000000e-001 3.33333343e-001
      3.33333343e-001 3.05555552e-001 8.33333313e-001 8.61111104e-001
      8.61111104e-001 8.61111104e-001 8.61111104e-001 9.16666687e-001
      9.44444478e-001 9.44444478e-001 8.61111104e-001 6.11111104e-001
      4.16666657e-001 3.88888896e-001 5.00000000e-001 6.38888896e-001
      6.38888896e-001 6.66666687e-001 6.38888896e-001 5.27777791e-001
      3.61111104e-001 3.61111104e-001 5.00000000e-001 6.66666687e-001
      9.44444478e-001 9.44444478e-001 9.44444478e-001 8.61111104e-001
      5.83333313e-001 4.16666657e-001 3.61111104e-001 4.72222239e-001
      6.11111104e-001 6.38888896e-001 6.66666687e-001 6.94444478e-001
      5.55555582e-001 3.88888896e-001 3.33333343e-001 4.72222239e-001
      6.94444478e-001 9.16666687e-001 8.61111104e-001 8.61111104e-001
      6.11111104e-001 3.33333343e-001 2.50000000e-001 2.22222224e-001
      3.05555552e-001 3.61111104e-001 5.00000000e-001 6.38888896e-001
      6.11111104e-001 5.83333313e-001 5.00000000e-001 6.11111104e-001
      7.22222209e-001 8.61111104e-001 9.44444478e-001 9.16666687e-001
      9.44444478e-001 7.77777791e-001 6.38888896e-001 5.83333313e-001
      4.72222239e-001 5.27777791e-001 5.55555582e-001 5.83333313e-001
      6.38888896e-001 6.38888896e-001 5.83333313e-001 5.27777791e-001
      5.83333313e-001 6.94444478e-001 8.61111104e-001 9.44444478e-001
      9.44444478e-001 5.00000000e-001 2.22222224e-001 9.44444478e-001 1.
      1. 7.30158746e-001 8.01587343e-001 9.60317492e-001 9.84127045e-001
      9.76190507e-001 1. 9.20634985e-001 7.38095284e-001 6.82539701e-001
      6.66666687e-001 7.69841313e-001 7.14285731e-001 7.30158746e-001
      7.14285731e-001 7.14285731e-001 6.74603224e-001 5.79365134e-001
      6.03174627e-001 5.63492119e-001 6.19047642e-001 6.58730209e-001
      6.74603224e-001 6.90476239e-001 6.66666687e-001 6.42857194e-001
      5.79365134e-001 5.15873075e-001 5.63492119e-001 6.42857194e-001
      7.85714328e-001 1. 9.76190507e-001 9.68254030e-001 9.44444478e-001
      4.04761940e-001 3.33333343e-001 6.31768955e-003 0. 0. 0. 0. 0.
      9.92779806e-003 0. 0. 0. 0. 0. 0. 9.02527105e-003 0. 0.
      2.61732843e-002 3.61010828e-003 3.97111923e-002 7.40072206e-002
      2.49097466e-001 3.52888077e-001 7.87003577e-001 3.24909747e-001 1.
      2.02166066e-001 7.21119106e-001 6.85920566e-002 1.28158838e-001
      9.56678689e-002 1.37184113e-001 0. 6.67870045e-002 1.98555961e-002
      1.53429601e-002 2.79783383e-002 6.31768955e-003 0. 0.
      1.80505414e-003 5.41516254e-003 0. 1.80505414e-003 6.31768955e-003
      0. 0. 0. 0. 0. 0. 4.51263553e-003 1.80505414e-003 0. 0. 0.
      3.61010828e-003 0. 0. 0. 0. 0. 0. 0. 0. 0. 0. 9.02527070e-004 0.
      0. 0. 9.02527070e-004 0. 0. 0. 0. 3.61010828e-003 0. 0. 0. 0. 0.
      0. 0. 0. 0. 0. 0. 0. 0. 0. 0. 0. 0. 0. 0. 0. 0. 0. 0. 0. 0. 0. 0.
      0. 0. 0. 0. 0. 0. 0. 0. 0. 0. 0. 0. 0. 0. 0. 0. 0. 6.31768955e-003
      0. 0. 0. 0. 0. 0. 0. 0. 0. 0. 0. 0. 0. 0. 0. 0. 0. 0. 0. 0. 0. 0.
      0. 0. 0. 0. 0. 0. 0. 0. 0. 0. 0. 0. 0. 0. 0. 0. 0. 0. 0. 0. 0. 0.
      2.70758127e-003 0. 0. 0. 0. 0. 0. 0. 7.22021656e-003 0. 0. 0. 0.
      0. 0.</_>
    <_>
      0. 8.33333358e-002 3.33333343e-001 4.72222239e-001 8.88888896e-001
      1. 9.72222209e-001 7.50000000e-001 4.16666657e-001 3.88888896e-001
      4.16666657e-001 7.22222209e-001 8.33333313e-001 7.77777791e-001
      6.11111104e-001 5.00000000e-001 4.16666657e-001 7.50000000e-001
      7.50000000e-001 7.22222209e-001 1.38888896e-001 1.38888896e-001 0.
      1.11111112e-001 3.61111104e-001 6.38888896e-001 7.50000000e-001
      6.94444478e-001 5.55555582e-001 5.55555582e-001 8.88888896e-001
      8.61111104e-001 8.33333313e-001 7.77777791e-001 7.77777791e-001
      8.61111104e-001 9.72222209e-001 8.33333313e-001 8.33333313e-001
      8.33333313e-001 7.50000000e-001 7.50000000e-001 5.83333313e-001
      2.77777780e-002 0. 0. 1.11111112e-001 1.66666672e-001
      3.33333343e-001 4.16666657e-001 4.44444448e-001 5.83333313e-001
      5.55555582e-001 5.83333313e-001 7.22222209e-001 9.44444478e-001
      9.16666687e-001 8.88888896e-001 5.27777791e-001 3.88888896e-001
      3.33333343e-001 3.61111104e-001 3.88888896e-001 3.88888896e-001
      2.22222224e-001 5.55555560e-002 0. 0. 2.77777780e-002
      6.94444478e-001 9.44444478e-001 9.72222209e-001 6.94444478e-001
      5.83333313e-001 6.66666687e-001 8.61111104e-001 7.50000000e-001
      3.88888896e-001 2.77777791e-001 2.50000000e-001 7.77777791e-001
      7.77777791e-001 7.77777791e-001 8.88888896e-001 3.33333343e-001
      2.77777791e-001 2.22222224e-001 1.38888896e-001 0. 0. 0. 0. 0. 0.
      8.33333358e-002 5.55555582e-001 7.50000000e-001 8.33333313e-001
      7.77777791e-001 3.05555552e-001 2.50000000e-001 2.77777791e-001
      4.16666657e-001 8.61111104e-001 7.77777791e-001 6.66666687e-001
      3.33333343e-001 0. 1.38888896e-001 5.27777791e-001 7.22222209e-001
      8.61111104e-001 6.94444478e-001 4.44444448e-001 4.44444448e-001
      5.00000000e-001 7.22222209e-001 8.61111104e-001 7.50000000e-001
      5.55555582e-001 5.55555560e-002 0. 3.33333343e-001 6.38888896e-001
      7.77777791e-001 8.33333313e-001 5.55555582e-001 3.88888896e-001
      3.61111104e-001 4.16666657e-001 7.22222209e-001 7.22222209e-001
      6.38888896e-001 4.44444448e-001 0. 0. 8.33333358e-002
      4.16666687e-001 7.29166687e-001 8.22916687e-001 9.58333373e-001 1.
      8.64583373e-001 7.08333373e-001 6.45833373e-001 6.35416687e-001
      6.14583373e-001 6.35416687e-001 6.25000000e-001 7.18750000e-001
      7.50000000e-001 8.33333373e-001 8.43750000e-001 8.54166687e-001
      8.54166687e-001 8.12500000e-001 7.39583373e-001 6.87500000e-001
      7.39583373e-001 7.18750000e-001 7.08333373e-001 8.85416687e-001
      9.37500000e-001 8.54166687e-001 8.64583373e-001 7.81250000e-001
      7.70833373e-001 7.39583373e-001 6.66666687e-001 4.47916687e-001
      3.12500000e-001 2.29166672e-001 0. 5.38599677e-003 5.38599677e-003
      1.61579903e-002 1.97486542e-002 4.48833033e-002 4.66786362e-002
      8.25852826e-002 5.02693020e-002 1.61579892e-001 2.35188514e-001
      2.38779187e-001 3.05206478e-001 3.48294437e-001 2.33393177e-001
      4.21903074e-001 3.55475783e-001 5.08078992e-001 4.23698395e-001
      5.42190313e-001 8.31238806e-001 7.41472185e-001 1. 8.58168781e-001
      2.69299835e-001 5.20646334e-001 4.11131084e-001 7.71992803e-002
      2.33393181e-002 0. 0. 0. 0. 0. 0. 0. 0. 0. 0. 0. 0. 0. 0. 0. 0. 0.
      0. 0. 0. 0. 0. 0. 0. 0. 0. 0. 0. 0. 0. 0. 0. 0. 0. 0. 0. 0. 0. 0.
      0. 0. 0. 0. 0. 0. 0. 0. 0. 0. 0. 0. 0. 0. 0. 0. 0. 0. 0. 0. 0. 0.
      0. 0. 0. 0. 0. 0. 0. 0. 0. 0. 0. 0. 0. 0. 0. 0. 0. 0. 0. 0. 0. 0.
      0. 0. 0. 0. 0. 0. 0. 0. 0. 0. 0. 0. 0. 0. 0. 0. 0. 0. 0. 0. 0. 0.
      0. 0. 0. 0. 0. 0. 0. 0. 0. 0. 0. 0. 0. 0. 0. 0. 0. 0. 0. 0. 0. 0.
      0. 0. 0. 0. 0. 0. 0. 0. 0. 0. 0. 0. 0. 0. 0. 0. 0. 0.
      1.79533218e-003 0. 0. 3.59066436e-003 3.59066436e-003
      3.59066436e-003</_>
    <_>
      0. 0. 0. 0. 0. 0. 4.34782617e-002 2.17391312e-001 3.91304344e-001
      4.34782624e-001 4.34782624e-001 5.21739125e-001 6.52173936e-001
      6.08695686e-001 6.52173936e-001 6.08695686e-001 6.08695686e-001
      4.78260875e-001 3.91304344e-001 4.78260875e-001 3.91304344e-001
      3.04347843e-001 8.69565234e-002 0. 4.34782617e-002 1.30434781e-001
      5.21739125e-001 4.34782624e-001 4.34782617e-002 4.34782617e-002
      5.21739125e-001 6.95652187e-001 6.08695686e-001 5.21739125e-001
      7.82608688e-001 8.69565248e-001 6.52173936e-001 3.47826093e-001
      2.17391312e-001 9.13043499e-001 9.13043499e-001 7.39130437e-001
      4.78260875e-001 3.91304344e-001 6.08695686e-001 8.69565248e-001
      9.56521749e-001 9.56521749e-001 8.69565248e-001 9.13043499e-001
      7.39130437e-001 6.95652187e-001 6.52173936e-001 6.95652187e-001
      9.56521749e-001 6.95652187e-001 3.04347843e-001 3.47826093e-001
      4.78260875e-001 4.34782624e-001 3.91304344e-001 5.21739125e-001
      5.65217376e-001 3.47826093e-001 8.69565234e-002 8.69565234e-002
      1.30434781e-001 3.47826093e-001 4.78260875e-001 4.34782624e-001
      2.17391312e-001 3.91304344e-001 7.82608688e-001 7.82608688e-001
      7.39130437e-001 7.82608688e-001 7.39130437e-001 6.08695686e-001
      5.21739125e-001 3.91304344e-001 4.78260875e-001 6.95652187e-001
      6.52173936e-001 3.91304344e-001 3.47826093e-001 3.04347843e-001
      3.47826093e-001 5.21739125e-001 6.95652187e-001 6.52173936e-001
      6.95652187e-001 5.65217376e-001 1.73913047e-001 3.91304344e-001
      5.21739125e-001 8.26086998e-001 5.21739125e-001 5.21739125e-001
      6.95652187e-001 8.26086998e-001 8.69565248e-001 8.69565248e-001
      8.26086998e-001 1. 6.95652187e-001 2.60869563e-001 2.17391312e-001
      3.91304344e-001 7.82608688e-001 6.52173936e-001 3.91304344e-001
      4.78260875e-001 6.95652187e-001 7.82608688e-001 6.08695686e-001
      6.08695686e-001 8.26086998e-001 6.08695686e-001 4.34782624e-001
      1.73913047e-001 3.47826093e-001 6.52173936e-001 7.82608688e-001
      4.78260875e-001 5.21739125e-001 6.95652187e-001 8.69565248e-001
      8.69565248e-001 6.95652187e-001 8.69565248e-001 6.95652187e-001
      3.04347843e-001 2.60869563e-001 1.30434781e-001 3.91304344e-001
      2.60869563e-001 1.97674423e-001 6.97674453e-002 2.79069781e-001
      7.32558131e-001 1. 9.88372087e-001 9.18604672e-001 9.06976759e-001
      8.95348847e-001 8.83720934e-001 8.95348847e-001 8.60465109e-001
      7.20930219e-001 3.48837197e-001 3.02325577e-001 5.00000000e-001
      5.58139563e-001 5.58139563e-001 5.23255825e-001 7.32558131e-001
      7.90697694e-001 4.30232555e-001 3.60465109e-001 3.95348847e-001
      3.25581402e-001 1.74418598e-001 1.39534891e-001 1.74418598e-001
      2.67441869e-001 5.23255825e-001 5.11627913e-001 5.23255825e-001
      4.41860467e-001 4.18604642e-001 1.97674423e-001 4.65116277e-002
      4.55830395e-001 1.23674916e-002 5.12367487e-002 8.48056525e-002 0.
      9.18727890e-002 1.14840992e-001 1.76678447e-003 5.30035347e-002
      1.76678447e-003 1.76678447e-003 5.65371029e-002 1.76678447e-003
      7.24381655e-002 1.59010608e-002 3.53356893e-003 8.83392245e-003 0.
      1.76678447e-003 2.29681972e-002 7.59717301e-002 1.06007066e-002
      1.76678447e-003 3.53356893e-003 8.83392245e-003 2.82685515e-002
      1.76678447e-003 0. 0. 0. 7.77385160e-002 0. 0. 0. 1.06007066e-002
      2.82685515e-002 7.06713786e-003 0. 0. 0. 3.53356893e-003 0.
      5.30035328e-003 2.47349832e-002 0. 0. 0. 0. 0. 0. 2.29681972e-002
      3.00353356e-002 0. 0. 0. 1.94346290e-002 1.59010608e-002 0. 0. 0.
      3.18021215e-002 0. 0. 1.76678447e-003 0. 1.76678447e-003
      6.00706711e-002 0. 5.30035328e-003 3.53356893e-003 6.00706711e-002
      3.53356893e-003 0. 3.35689038e-002 7.06713786e-003 4.59363945e-002
      1.23674916e-002 0. 0. 8.83392245e-003 9.71731469e-002 0. 0.
      6.36042431e-002 1.94346290e-002 7.06713786e-003 0. 7.06713786e-003
      1.23674916e-002 0. 5.47703169e-002 0. 4.41696122e-002
      1.76678449e-002 1.76678447e-003 9.01060104e-002 1.76678449e-002
      5.30035328e-003 6.36042431e-002 7.59717301e-002 7.95053020e-002
      7.24381655e-002 7.06713796e-002 8.30388665e-002 5.12367487e-002
      1.23674914e-001 1.06007069e-001 1.20141342e-001 7.06713796e-002
      5.30035347e-002 6.89045936e-002 2.47349832e-002 2.47349832e-002
      1.06007066e-002 1.94346290e-002 8.83392245e-003 1.41342757e-002
      3.53356893e-003 3.53356893e-003 7.06713786e-003 3.71024720e-002 0.
      8.83392245e-003 0. 7.06713786e-003 1.23674916e-002 1.76678449e-002
      1.76678447e-003 8.83392245e-003 7.06713786e-003 5.30035328e-003 0.
      1.41342757e-002 1.23674916e-002 0. 1.76678447e-003 7.06713786e-003
      0. 3.53356893e-003 0. 3.53356898e-002 5.30035328e-003
      1.76678447e-003 0. 0. 1.76678449e-002 1.59010608e-002
      3.53356893e-003 0. 0. 1.41342757e-002 0. 0. 1.76678447e-003 0.
      1.06007066e-002 4.24028262e-002 7.06713786e-003 1.41342757e-002
      2.47349832e-002 4.77031805e-002 1.59010608e-002 1.41342757e-002
      5.30035347e-002 1.00706711e-001 1.23674914e-001 1.07773855e-001
      2.47349828e-001 7.59717301e-002 1.46643117e-001 1. 1.51943460e-001
      7.54416943e-001 3.14487636e-001 6.64310932e-001 3.25088352e-001
      1.50176674e-001 5.51236749e-001 1.25441700e-001 4.24028262e-002</_>
    <_>
      0. 4.76190485e-002 9.52380970e-002 1.42857149e-001 9.52380970e-002
      9.52380970e-002 9.52380970e-002 9.52380970e-002 1.42857149e-001
      2.85714298e-001 6.66666687e-001 7.14285731e-001 7.14285731e-001
      6.66666687e-001 6.19047642e-001 6.19047642e-001 8.57142866e-001 1.
      7.61904776e-001 8.57142866e-001 8.09523821e-001 9.04761910e-001
      9.52380955e-001 7.14285731e-001 8.09523821e-001 7.61904776e-001
      7.61904776e-001 8.57142866e-001 7.61904776e-001 8.09523821e-001
      7.61904776e-001 6.19047642e-001 4.28571433e-001 3.33333343e-001
      2.85714298e-001 2.38095239e-001 1.42857149e-001 9.52380970e-002
      3.33333343e-001 3.80952388e-001 2.85714298e-001 2.85714298e-001
      3.33333343e-001 4.76190478e-001 6.19047642e-001 5.23809552e-001
      5.23809552e-001 7.14285731e-001 7.61904776e-001 6.66666687e-001
      6.19047642e-001 6.19047642e-001 3.80952388e-001 2.85714298e-001
      1.90476194e-001 1.90476194e-001 0. 0. 0. 0. 0. 0. 0.
      9.52380970e-002 1.42857149e-001 1.42857149e-001 9.52380970e-002
      9.52380970e-002 0. 2.38095239e-001 2.38095239e-001 1.90476194e-001
      3.33333343e-001 3.33333343e-001 2.85714298e-001 3.80952388e-001
      3.80952388e-001 4.28571433e-001 4.28571433e-001 3.80952388e-001
      2.38095239e-001 3.33333343e-001 2.85714298e-001 1.42857149e-001 0.
      0. 0. 0. 4.76190485e-002 1.42857149e-001 1.90476194e-001
      1.90476194e-001 1.90476194e-001 1.90476194e-001 1.90476194e-001
      1.42857149e-001 1.90476194e-001 2.38095239e-001 3.80952388e-001
      4.28571433e-001 4.76190478e-001 5.71428597e-001 5.23809552e-001
      5.23809552e-001 5.23809552e-001 5.71428597e-001 5.23809552e-001
      5.23809552e-001 5.71428597e-001 2.38095239e-001 1.90476194e-001
      1.42857149e-001 2.38095239e-001 3.33333343e-001 3.80952388e-001
      3.33333343e-001 3.33333343e-001 1.90476194e-001 1.42857149e-001
      1.42857149e-001 1.90476194e-001 2.38095239e-001 2.38095239e-001
      9.52380970e-002 4.76190485e-002 9.52380970e-002 1.90476194e-001
      9.52380970e-002 9.52380970e-002 9.52380970e-002 9.52380970e-002
      1.90476194e-001 1.90476194e-001 9.52380970e-002 4.76190485e-002
      4.76190485e-002 7.50000030e-002 1.74999997e-001 3.49999994e-001
      4.74999994e-001 4.00000006e-001 4.00000006e-001 3.75000000e-001
      5.50000012e-001 6.50000036e-001 9.00000036e-001 6.99999988e-001
      6.75000012e-001 6.00000024e-001 6.25000000e-001 7.25000024e-001
      7.25000024e-001 8.75000000e-001 7.50000000e-001 8.24999988e-001
      7.75000036e-001 8.00000012e-001 7.50000000e-001 8.00000012e-001 1.
      1. 8.50000024e-001 9.00000036e-001 9.00000036e-001 6.75000012e-001
      7.50000000e-001 6.25000000e-001 5.25000036e-001 5.00000000e-001 1.
      7.75000036e-001 1.74999997e-001 1.84713379e-001 0. 0. 0. 0. 0.
      3.60934213e-002 0. 0. 0. 0. 0. 0. 8.49256944e-003 0. 0. 0. 0. 0.
      0. 4.03397046e-002 0. 0. 0. 2.97239926e-002 2.12314236e-003 0. 0.
      0. 0. 1.01910830e-001 0. 0. 0. 6.36942685e-003 1.27388537e-002
      3.18471342e-002 0. 6.36942685e-003 0. 1.48619963e-002 0.
      3.18471342e-002 1.69851389e-002 0. 6.36942685e-003 0. 0.
      8.49256944e-003 0. 8.28025490e-002 8.49256944e-003 6.36942685e-003
      0. 4.24628472e-003 1.06157120e-002 2.12314241e-002 4.24628472e-003
      0. 0. 5.30785583e-002 0. 2.12314236e-003 1.48619963e-002 0.
      3.82165611e-002 7.64331222e-002 2.12314236e-003 1.69851389e-002
      4.24628472e-003 4.67091314e-002 0. 0. 2.54777074e-002
      1.69851389e-002 1.63481966e-001 0. 0. 0. 6.36942685e-003
      8.49256963e-002 0. 0. 1.67728245e-001 0. 0. 0. 2.54777074e-002 0.
      0. 9.76645499e-002 0. 0. 1.06157120e-002 0. 6.36942685e-003
      3.31210196e-001 0. 2.33545657e-002 0. 0. 1.12526543e-001
      2.12314236e-003 4.98938441e-001 2.97239926e-002 3.39702778e-002
      1.91082805e-001 1.48619963e-002 3.18471342e-002 3.77919346e-001
      4.88322735e-001 4.03397053e-001 8.49256963e-002 1.59235671e-001
      4.60721880e-001 4.41613615e-001 1.01910830e-001 1.48619963e-002
      1.91082805e-002 4.88322750e-002 1. 1.06157120e-002 5.73248453e-002
      1.06157120e-002 1.61358818e-001 5.03184736e-001 4.52229321e-001
      2.12314236e-003 5.73248453e-002 1.69851389e-002 8.49256963e-002 0.
      2.10191101e-001 1.59235671e-001 0. 4.24628481e-002 0. 0.
      5.52017018e-002 0. 3.58811051e-001 5.09554148e-002 6.36942685e-003
      0. 0. 1.27388537e-001 8.91719759e-002 1.27388537e-002 0. 0.
      7.85562694e-002 0. 4.24628472e-003 1.48619963e-002 0.
      8.49256944e-003 2.29299381e-001 6.36942685e-003 1.27388537e-002
      1.69851389e-002 1.76220819e-001 8.49256944e-003 0. 1.42250538e-001
      2.84501076e-001 1.50743112e-001 1.31634831e-001 0. 0.
      5.09554148e-002 1.18895970e-001 0. 0. 5.09554148e-002 0.
      8.49256944e-003 0. 2.33545657e-002 0. 0.</_>
    <_>
      1. 1. 1. 1. 1. 1. 1. 1. 1. 1. 1. 1. 3.33333343e-001
      2.50000000e-001 1.94444448e-001 1.94444448e-001 8.33333313e-001
      8.05555582e-001 8.33333313e-001 2.22222224e-001 1.66666672e-001
      8.33333358e-002 0. 0. 0. 0. 0. 0. 0. 0. 0. 0. 0. 0. 0. 0. 0. 0. 0.
      0. 0. 0. 0. 0. 8.05555582e-001 8.88888896e-001 9.16666687e-001
      6.66666687e-001 0. 0. 0. 0. 0. 0. 0. 0. 0. 0. 0. 0. 0. 0. 0. 0. 0.
      0. 0. 0. 0. 0. 0. 0. 0. 0. 0. 1.94444448e-001 8.61111104e-001
      8.61111104e-001 7.50000000e-001 0. 0. 0. 0. 0. 0. 0. 0. 0. 0. 0.
      0. 0. 0. 0. 0. 0. 0. 0. 0. 0. 0. 0. 0. 0. 0. 0. 8.05555582e-001
      8.33333313e-001 8.33333313e-001 1.94444448e-001 0. 0. 0. 0. 0. 0.
      0. 0. 0. 0. 0. 0. 0. 0. 0. 0. 0. 0. 0. 0. 2.77777780e-002
      1.11111112e-001 3.33333343e-001 7.22222209e-001 5.27777791e-001
      1.38888896e-001 5.86206913e-001 6.20689631e-001 6.89655185e-001
      7.93103456e-001 8.27586174e-001 8.62068951e-001 9.65517223e-001
      9.65517223e-001 8.96551728e-001 8.27586174e-001 8.62068951e-001
      8.96551728e-001 9.65517223e-001 9.31034505e-001 9.31034505e-001
      9.31034505e-001 9.65517223e-001 9.65517223e-001 1. 1. 1.
      9.31034505e-001 9.31034505e-001 9.31034505e-001 9.31034505e-001
      9.65517223e-001 9.65517223e-001 9.65517223e-001 9.65517223e-001
      9.65517223e-001 9.65517223e-001 1. 9.65517223e-001 1.
      8.96551728e-001 8.96551728e-001 1.75986841e-001 0. 0. 0. 0. 0.
      1.64473685e-003 0. 0. 0. 0. 0. 0. 0. 0. 0. 0. 0. 0. 0.
      3.61842103e-002 0. 0. 0. 9.86842066e-003 0. 0. 0. 0. 0.
      1.74342111e-001 0. 0. 0. 0. 0. 1.15131577e-002 0. 0. 0. 0. 0.
      7.07236826e-002 3.61842103e-002 0. 0. 0. 0. 0. 0. 1.57894731e-001
      1.15131577e-002 0. 0. 0. 6.74342141e-002 6.57894742e-003 0. 0. 0.
      2.96052638e-002 0. 0. 0. 0. 0. 1.66118428e-001 0. 0. 0.
      8.05921033e-002 0. 0. 3.45394723e-002 8.22368450e-003
      3.63486856e-001 0. 0. 0. 3.12500000e-002 1.41447365e-001 0. 0.
      3.68421048e-001 0. 6.57894742e-003 0. 9.86842141e-002 0. 0.
      4.02960539e-001 0. 0. 2.63157897e-002 0. 2.30263155e-002
      7.07236826e-001 0. 1.11842103e-001 0. 0. 5.78947365e-001 0. 1.
      7.40131587e-002 0. 1.95723683e-001 0. 1.64473685e-003
      4.78618413e-001 4.11184222e-001 3.48684222e-001 2.79605258e-002
      1.79276317e-001 4.73684222e-001 3.35526317e-001 2.79605258e-002 0.
      0. 0. 2.45065793e-001 0. 0. 0. 1.15131577e-002 7.89473653e-002
      1.10197373e-001 0. 0. 0. 0. 0. 6.57894742e-003 3.28947371e-003 0.
      0. 0. 0. 0. 0. 5.59210517e-002 0. 0. 0. 0. 0. 0. 0. 0. 0. 0. 0. 0.
      0. 0. 0. 0. 0. 0. 0. 0. 0. 0. 0. 0. 4.27631587e-002 0. 0. 0. 0. 0.
      0. 0. 4.93421033e-003 0. 0. 0. 0. 0. 0.</_>
    <_>
      0. 3.57142873e-002 1.07142866e-001 2.14285731e-001 2.85714298e-001
      3.21428597e-001 3.21428597e-001 3.21428597e-001 3.21428597e-001
      3.21428597e-001 3.92857164e-001 3.92857164e-001 3.92857164e-001
      3.92857164e-001 3.92857164e-001 3.92857164e-001 3.92857164e-001
      4.28571463e-001 4.64285731e-001 4.64285731e-001 5.00000000e-001
      5.00000000e-001 4.64285731e-001 5.00000000e-001 5.00000000e-001
      5.00000000e-001 5.35714328e-001 5.00000000e-001 5.00000000e-001
      5.35714328e-001 5.35714328e-001 5.71428597e-001 6.42857194e-001
      6.07142866e-001 6.42857194e-001 6.78571463e-001 6.78571463e-001
      7.50000060e-001 7.14285731e-001 8.57142925e-001 9.28571463e-001
      9.64285731e-001 1. 9.64285731e-001 9.64285731e-001 9.28571463e-001
      9.28571463e-001 8.92857194e-001 8.92857194e-001 8.57142925e-001
      8.57142925e-001 8.57142925e-001 8.57142925e-001 8.57142925e-001
      7.50000060e-001 7.50000060e-001 7.50000060e-001 7.14285731e-001
      6.07142866e-001 5.35714328e-001 3.92857164e-001 2.14285731e-001
      2.14285731e-001 2.14285731e-001 2.50000000e-001 2.14285731e-001
      2.14285731e-001 2.50000000e-001 2.50000000e-001 2.50000000e-001
      2.50000000e-001 2.50000000e-001 2.85714298e-001 3.21428597e-001
      3.21428597e-001 3.57142866e-001 3.92857164e-001 3.92857164e-001
      4.28571463e-001 4.64285731e-001 5.71428597e-001 6.07142866e-001
      5.71428597e-001 5.71428597e-001 6.07142866e-001 6.07142866e-001
      5.71428597e-001 5.71428597e-001 5.35714328e-001 5.71428597e-001
      6.07142866e-001 6.42857194e-001 6.78571463e-001 7.14285731e-001
      7.14285731e-001 7.50000060e-001 7.85714328e-001 5.71428597e-001
      5.35714328e-001 5.35714328e-001 5.35714328e-001 5.35714328e-001
      5.71428597e-001 5.35714328e-001 5.35714328e-001 5.71428597e-001
      5.71428597e-001 5.35714328e-001 5.35714328e-001 5.00000000e-001
      5.00000000e-001 5.00000000e-001 4.64285731e-001 4.64285731e-001
      4.64285731e-001 4.28571463e-001 4.28571463e-001 4.28571463e-001
      4.28571463e-001 3.92857164e-001 3.92857164e-001 3.57142866e-001
      2.85714298e-001 2.85714298e-001 2.85714298e-001 2.50000000e-001
      2.50000000e-001 2.14285731e-001 1.78571433e-001 1.42857149e-001
      1.42857149e-001 1.07142866e-001 1.07142866e-001 1.07142866e-001
      1.07142866e-001 1.07142866e-001 3.82716060e-001 3.45679015e-001
      3.08641970e-001 1.72839507e-001 2.46913582e-001 2.71604955e-001
      2.96296299e-001 3.82716060e-001 5.30864179e-001 5.80246925e-001
      6.66666687e-001 7.65432119e-001 8.88888896e-001 1. 8.76543224e-001
      7.77777791e-001 5.92592597e-001 6.29629612e-001 6.79012358e-001
      7.65432119e-001 8.76543224e-001 8.39506149e-001 8.27160478e-001
      8.39506149e-001 7.90123463e-001 7.53086448e-001 7.90123463e-001
      7.90123463e-001 8.02469134e-001 7.90123463e-001 7.77777791e-001
      7.28395045e-001 6.66666687e-001 5.80246925e-001 5.06172836e-001
      4.44444448e-001 3.33017081e-001 1.61290318e-001 1.00569256e-001
      9.67741907e-002 5.12333959e-002 1.87855780e-001 7.30550289e-002
      1.23339659e-002 1.00569256e-001 3.60531323e-002 1.04364324e-002
      9.67741907e-002 9.48766596e-004 5.59772290e-002 2.56166980e-002
      4.74383309e-003 2.65654642e-002 0. 4.74383309e-003 9.48766619e-003
      3.79506638e-003 1.51802655e-002 4.74383309e-003 1.89753319e-003
      9.48766596e-004 0. 7.59013277e-003 0. 0. 0. 6.64136605e-003 0. 0.
      0. 0. 0. 0. 0. 0. 0. 0. 0. 0. 0. 0. 0. 0. 0. 0. 0. 0. 0. 0. 0. 0.
      0. 0. 0. 0. 0. 0. 0. 0. 0. 0. 0. 0. 0. 0. 0. 0. 0. 0. 0. 0.
      1.89753319e-003 0. 0. 0. 0. 0. 0. 0. 0. 0. 0. 0. 0. 0. 0. 0. 0. 0.
      0. 0. 0. 0. 0. 0. 0. 0. 0. 0. 0. 0. 0. 0. 0. 0. 0. 1.89753319e-003
      0. 0. 0. 0. 0. 0. 0. 0. 0. 6.64136605e-003 0. 0. 0. 0. 0.
      9.48766596e-004 0. 0. 0. 0. 0. 0. 0. 0. 2.84629967e-003 0. 0. 0.
      0. 8.53889901e-003 0. 0. 0. 0. 0. 0. 0. 0. 0. 0. 0. 0. 0. 0. 0. 0.
      0. 9.48766596e-004 0. 2.84629967e-003 0. 0. 0. 0. 3.79506638e-003
      0. 0. 0. 4.74383309e-003 4.74383309e-003 9.48766596e-004
      6.64136605e-003 3.88994291e-002 1.33776084e-001 3.47248584e-001
      6.38519943e-001 1. 6.34724855e-001 3.75711560e-001</_>
    <_>
      2.22222224e-001 2.22222224e-001 2.22222224e-001 2.22222224e-001
      2.22222224e-001 2.59259254e-001 2.59259254e-001 2.59259254e-001
      2.59259254e-001 2.59259254e-001 2.96296299e-001 2.59259254e-001
      2.22222224e-001 2.22222224e-001 2.59259254e-001 2.96296299e-001
      3.33333343e-001 2.59259254e-001 3.70370388e-001 5.92592597e-001
      7.40740776e-001 8.14814806e-001 8.88888896e-001 8.88888896e-001
      3.33333343e-001 3.70370388e-001 5.55555582e-001 7.77777791e-001
      7.77777791e-001 7.03703701e-001 2.96296299e-001 2.59259254e-001
      2.22222224e-001 2.96296299e-001 2.59259254e-001 2.22222224e-001
      1.85185194e-001 1.48148149e-001 1.11111112e-001 1.11111112e-001
      7.40740746e-002 1.48148149e-001 1.85185194e-001 5.55555582e-001
      7.40740776e-001 8.88888896e-001 9.62962985e-001 1. 1. 1.
      8.14814806e-001 5.92592597e-001 4.44444448e-001 4.07407403e-001
      2.96296299e-001 2.96296299e-001 2.59259254e-001 2.22222224e-001
      2.59259254e-001 2.59259254e-001 2.96296299e-001 2.59259254e-001
      2.59259254e-001 2.59259254e-001 2.22222224e-001 2.22222224e-001
      2.22222224e-001 2.22222224e-001 2.22222224e-001 2.22222224e-001
      2.22222224e-001 2.22222224e-001 2.22222224e-001 2.22222224e-001
      2.22222224e-001 2.22222224e-001 2.59259254e-001 2.59259254e-001
      2.59259254e-001 2.59259254e-001 2.59259254e-001 2.59259254e-001
      2.59259254e-001 2.96296299e-001 4.07407403e-001 5.55555582e-001
      5.92592597e-001 5.92592597e-001 6.29629612e-001 7.40740776e-001
      6.66666687e-001 6.29629612e-001 5.55555582e-001 4.07407403e-001
      3.33333343e-001 2.59259254e-001 1.48148149e-001 1.48148149e-001
      1.48148149e-001 1.85185194e-001 1.85185194e-001 1.85185194e-001
      2.96296299e-001 2.59259254e-001 2.59259254e-001 2.59259254e-001
      3.33333343e-001 4.44444448e-001 7.40740776e-001 7.03703701e-001
      4.81481493e-001 3.70370388e-001 2.96296299e-001 3.70370388e-001
      5.92592597e-001 8.14814806e-001 7.77777791e-001 6.29629612e-001
      5.55555582e-001 3.70370388e-001 3.33333343e-001 3.33333343e-001
      3.33333343e-001 3.33333343e-001 2.96296299e-001 3.70370388e-001
      3.70370388e-001 3.33333343e-001 3.33333343e-001 3.33333343e-001
      2.96296299e-001 2.96296299e-001 2.96296299e-001 2.96296299e-001
      2.96296299e-001 2.96296299e-001 1. 9.24242437e-001 8.33333373e-001
      5.15151501e-001 4.24242437e-001 3.71212125e-001 3.18181813e-001
      2.80303031e-001 2.95454562e-001 2.72727281e-001 2.50000000e-001
